#pragma once

// Modelo MLP exportado desde scikit-learn para ESP32

#define INPUT_SIZE 36
#define H1_SIZE 64
#define H2_SIZE 32
#define OUTPUT_SIZE 3

const float scaler_mean[INPUT_SIZE] = {
  0.17296144f, 0.50190669f, -0.66918075f, 1.06271887f, 1.58907044f, 1.73189962f, 0.12334659f, 0.35179049f, -0.53025705f, 0.70566267f, 1.02400291f, 1.23591971f, 12.27287865f, 0.30812922f, 11.61750603f, 12.85756207f, 12.28829956f, 1.24005628f, 0.34304786f, 5.80371284f, -10.14675903f, 10.39462280f, 8.38066578f, 20.54138184f, 0.65089697f, 9.70644379f, -18.09461403f, 19.61639786f, 12.88474274f, 37.71101379f, 0.65214038f, 2.62098646f, -4.27195597f, 5.57363844f, 3.68274927f, 9.84559441f
};

const float scaler_scale[INPUT_SIZE] = {
  2.17963600f, 0.82140869f, 2.30489874f, 2.66077137f, 1.78387392f, 2.63900781f, 1.83512056f, 0.61622256f, 1.89530981f, 2.11601114f, 1.68457305f, 1.97945178f, 1.10965276f, 0.47513616f, 1.87660658f, 0.97765952f, 1.08318412f, 1.90143478f, 11.25612926f, 11.13828468f, 22.90419960f, 21.06574631f, 14.63991165f, 37.27091599f, 14.02756214f, 19.05334091f, 36.35060120f, 39.84511566f, 22.10032654f, 68.96671295f, 5.31167126f, 4.85477543f, 9.23401260f, 11.15748215f, 6.74647427f, 16.97722435f
};

const float W1[INPUT_SIZE][H1_SIZE] = {
  {-0.00611712f, 0.18626904f, 0.11147536f, 0.01466138f, -0.16961630f, -0.18625304f, -0.26257527f, 0.14568917f, 0.06192541f, 0.12775312f, -0.21439211f, 0.20475592f, 0.32992861f, -0.33789703f, -0.12092263f, -0.15906575f, -0.09278964f, -0.03657011f, 0.01659337f, -0.08212035f, 0.05253214f, -0.29636753f, -0.05962237f, -0.07941187f, 0.03083487f, 0.13245742f, 0.01927961f, 0.00579655f, 0.16570407f, -0.18469502f, 0.05704460f, -0.31642857f, -0.39379099f, 0.22067279f, 0.32014072f, 0.22316356f, -0.09722252f, -0.22905336f, 0.13518089f, -0.21053627f, -0.14565802f, -0.00704275f, -0.25580391f, 0.10783338f, -0.19250460f, -0.05670609f, 0.02898740f, 0.02010505f, 0.04336025f, -0.18567874f, 0.44599089f, 0.15905009f, 0.11707561f, 0.19941364f, 0.03946408f, 0.19026120f, -0.27187499f, -0.11366549f, -0.22300689f, -0.07885784f, -0.16173418f, -0.11205173f, 0.16082580f, -0.10954776f},
  {0.00357143f, -0.04890979f, -0.08712558f, 0.17760457f, -0.11738734f, 0.33601731f, 0.07880552f, -0.09359366f, -0.25491554f, 0.15468568f, 0.13518785f, 0.14258638f, 0.11174749f, -0.19444373f, -0.14033806f, -0.20257992f, 0.19976339f, 0.02288597f, -0.06425557f, -0.16954759f, 0.00085896f, -0.14917497f, 0.14327204f, 0.13494867f, 0.11875508f, 0.03405073f, -0.14388889f, 0.04048115f, 0.10324202f, -0.01731216f, 0.18838045f, 0.02167331f, 0.02663495f, 0.01489431f, -0.28911385f, -0.15685228f, -0.19918659f, -0.01007277f, -0.03780423f, 0.01580502f, 0.27047342f, -0.11961295f, -0.13084581f, 0.21826191f, -0.17993896f, -0.25922686f, -0.03291665f, -0.23429269f, 0.15278134f, 0.09476307f, 0.10719156f, 0.22383627f, 0.23930372f, -0.21662283f, 0.12147798f, 0.06181581f, 0.26195523f, 0.23147558f, -0.00238112f, -0.21290608f, -0.16807839f, 0.00534214f, 0.05491617f, 0.12684730f},
  {-0.27009213f, 0.03069035f, -0.09364231f, -0.18004918f, -0.25543737f, -0.15924174f, 0.21063276f, -0.13027833f, 0.00511988f, 0.10594749f, -0.07271355f, 0.19454731f, 0.35859486f, -0.32738328f, 0.05779278f, -0.09958915f, -0.10968873f, -0.26523501f, 0.08561730f, -0.00732717f, -0.29145959f, -0.18824330f, 0.20545387f, -0.18945718f, -0.11724148f, -0.04145759f, 0.34941521f, -0.05158167f, 0.17768595f, 0.21801968f, -0.15098003f, -0.07743776f, -0.26041222f, 0.02738891f, 0.15124740f, 0.04177235f, -0.20591217f, 0.21341108f, -0.11358638f, -0.36477098f, -0.22136466f, 0.05364769f, 0.12533480f, -0.35549346f, -0.04952864f, -0.23902966f, 0.14288342f, -0.13652569f, 0.15157525f, -0.03717288f, 0.38989976f, -0.20295736f, -0.23317306f, -0.10960196f, 0.24842989f, 0.15746605f, -0.23988470f, 0.06268525f, 0.11059784f, 0.04140086f, -0.06103990f, -0.14509729f, -0.10813500f, 0.22263840f},
  {0.27974787f, 0.00993635f, -0.02094167f, -0.08177210f, 0.16337225f, 0.23986574f, 0.13386586f, 0.11960279f, 0.07262152f, -0.17755057f, -0.12690422f, 0.17535593f, 0.14770077f, -0.39103511f, -0.21027790f, 0.07448377f, -0.23364152f, -0.22559968f, 0.07189879f, 0.12932572f, 0.13446817f, -0.26375505f, 0.14367704f, -0.08734203f, -0.06254779f, 0.14962503f, 0.17640387f, 0.13891207f, 0.17759088f, 0.03679918f, -0.15438187f, -0.15157834f, -0.22284172f, -0.10315641f, 0.26497033f, 0.01017695f, 0.21327321f, 0.00270654f, 0.19992927f, -0.12337325f, 0.09688125f, -0.00126397f, -0.20833234f, 0.12401050f, -0.18203679f, -0.33710608f, 0.18136480f, -0.17334980f, 0.18885884f, 0.17027321f, 0.34348571f, -0.02070467f, -0.25936180f, 0.18067387f, -0.06713251f, 0.22965752f, 0.23734117f, 0.21150017f, -0.05138196f, -0.06027259f, 0.09553475f, -0.07514042f, -0.21378480f, -0.01652352f},
  {0.35778290f, -0.01474640f, 0.06482445f, -0.24716316f, 0.11114726f, 0.32398608f, -0.29135832f, 0.00683530f, 0.29110128f, 0.24097051f, 0.02182922f, 0.08076921f, -0.05299510f, -0.05684978f, 0.13193661f, 0.24465525f, 0.20449302f, 0.18141866f, 0.09378061f, -0.01931393f, 0.21076389f, 0.03930073f, 0.10393602f, 0.19391885f, 0.27866328f, -0.06519046f, -0.01395785f, -0.30637330f, 0.07269346f, -0.28337890f, -0.07544360f, 0.10154846f, -0.04948442f, 0.08026534f, -0.25266412f, -0.20996872f, 0.07932401f, -0.17297672f, -0.14717451f, 0.13832484f, 0.15174237f, -0.24082433f, -0.05574416f, -0.10485087f, -0.23289590f, 0.02446399f, 0.10724445f, 0.15310167f, 0.06022721f, 0.21176612f, 0.08330528f, -0.08601461f, 0.22550792f, -0.17449243f, 0.02138546f, -0.24826087f, -0.12055896f, 0.36991146f, 0.21412487f, 0.20421380f, -0.03930524f, -0.13647877f, -0.27657652f, -0.22662978f},
  {0.13222383f, 0.03465033f, 0.17380761f, -0.08643219f, 0.31037405f, 0.20745519f, -0.02618176f, 0.10984322f, -0.04841221f, -0.11795153f, -0.03967270f, 0.14553373f, -0.25790048f, -0.18055251f, -0.29454333f, -0.23304999f, 0.18758848f, 0.06536496f, 0.00621182f, -0.14876786f, 0.08669149f, -0.07495307f, -0.12550695f, 0.03507475f, -0.11662889f, 0.11044659f, 0.10551403f, -0.28529453f, -0.08631038f, 0.02369333f, 0.05393145f, 0.20369951f, 0.09303731f, -0.12000292f, -0.26261866f, 0.10694911f, -0.20572546f, -0.03081395f, 0.26952395f, 0.05306395f, 0.01143151f, 0.07213429f, -0.09821335f, 0.11475898f, 0.16835450f, -0.10470721f, 0.29347983f, 0.13247800f, -0.20381115f, -0.26423854f, -0.15410502f, -0.19174065f, -0.11775628f, 0.02763350f, -0.27020034f, -0.04277703f, 0.28161618f, -0.19504787f, 0.23514456f, -0.12896447f, -0.23128895f, 0.13066567f, -0.03375578f, 0.13754800f},
  {0.18050331f, 0.24254794f, -0.11567984f, -0.18733530f, 0.16044176f, 0.23061614f, 0.32087815f, -0.03682006f, -0.15302442f, 0.03241180f, 0.01133357f, 0.23459509f, 0.20424727f, -0.15431358f, 0.12064995f, 0.13656344f, -0.23872368f, 0.17848071f, -0.04350857f, 0.22149892f, -0.09539263f, 0.19434209f, -0.10110951f, -0.29536340f, 0.11731906f, -0.25853410f, -0.24588095f, 0.36191806f, 0.23206869f, 0.16706355f, 0.15195198f, -0.16507624f, -0.03372593f, -0.03999761f, 0.06190670f, 0.17360087f, 0.19605546f, 0.14035632f, -0.18593249f, 0.21511503f, -0.21467352f, 0.14320363f, 0.01080406f, 0.22444926f, -0.17600824f, -0.23402978f, -0.32680580f, 0.05307636f, 0.07461106f, -0.21234673f, -0.40783235f, 0.14746919f, -0.36998710f, 0.24097171f, 0.07571495f, -0.16052070f, -0.20911714f, 0.27056950f, -0.16110680f, -0.04297647f, 0.11312535f, 0.24565087f, 0.30372599f, 0.22835748f},
  {-0.06626049f, -0.22666739f, 0.17480023f, 0.05955299f, 0.00093830f, 0.26232114f, -0.22819509f, 0.06301776f, -0.28264812f, -0.03163721f, -0.22458148f, -0.14806721f, -0.23912935f, 0.09450002f, 0.06492244f, 0.01579081f, 0.23110093f, -0.12288192f, -0.12395825f, 0.23734182f, -0.10222881f, 0.20686460f, -0.22425267f, 0.26217774f, -0.27246690f, 0.23922209f, 0.03316023f, 0.21100388f, -0.23249179f, 0.00070024f, 0.21235894f, -0.01496332f, 0.03669087f, 0.16440202f, -0.07454806f, 0.11267264f, 0.07367296f, 0.15871508f, -0.18736742f, -0.14103761f, 0.26655647f, 0.18322341f, -0.07734215f, 0.08206683f, -0.15142763f, -0.19388719f, -0.01150445f, -0.12334507f, -0.02770570f, -0.25099456f, 0.25368887f, 0.28446293f, 0.12552160f, -0.03435975f, -0.15607856f, 0.21679474f, 0.06581770f, -0.17468672f, 0.23687087f, 0.15241846f, 0.20541956f, 0.14349981f, 0.00940643f, -0.05998297f},
  {0.25849959f, 0.26629472f, -0.27834430f, -0.25933331f, -0.04768327f, 0.22288938f, 0.33352000f, -0.18846241f, -0.01900497f, -0.13682985f, 0.31790286f, 0.18860376f, 0.21281344f, -0.11614384f, -0.03236870f, -0.09455139f, -0.24458744f, 0.22016826f, 0.12031802f, 0.26383847f, 0.21743204f, 0.03588103f, 0.08119401f, 0.15585005f, 0.12604658f, -0.20044132f, -0.16821155f, -0.04180445f, 0.24229476f, 0.13931002f, -0.04529374f, -0.03826906f, 0.11251344f, -0.07153241f, -0.18458444f, 0.11826733f, 0.02522537f, 0.16693199f, 0.01338515f, 0.30699778f, 0.01408220f, 0.14864032f, 0.25088221f, -0.01288098f, -0.24956135f, -0.25178587f, -0.01801358f, 0.02196025f, 0.15074724f, -0.14635816f, -0.34529173f, -0.23310225f, -0.20442757f, 0.14385836f, -0.06551851f, -0.04914280f, 0.20306271f, -0.04171149f, -0.07812501f, 0.16742624f, -0.05294319f, 0.08329864f, 0.25004616f, 0.31591487f},
  {-0.13702248f, 0.22639275f, 0.02146597f, -0.13332647f, 0.02659984f, 0.32193801f, 0.02407601f, -0.05638322f, -0.00166463f, -0.18950908f, -0.14869037f, -0.15230916f, -0.17051975f, -0.24829851f, -0.19089229f, 0.07019929f, -0.19081160f, -0.11394683f, 0.14663753f, 0.05990802f, 0.10646971f, -0.17468867f, -0.17925334f, -0.24337390f, -0.23983575f, -0.12652659f, -0.25050303f, -0.12330274f, -0.18842065f, 0.02258194f, -0.08025153f, -0.16657075f, 0.02164372f, 0.15723269f, -0.26670465f, 0.20679012f, 0.10507133f, -0.23184320f, 0.20491275f, 0.31334648f, -0.20115311f, -0.02847896f, 0.13463514f, 0.15868908f, -0.24459442f, -0.19165161f, -0.15383542f, -0.08425283f, 0.03504317f, -0.09448060f, -0.10728756f, 0.18666078f, -0.35098535f, -0.08434504f, 0.05585671f, 0.25952885f, -0.00694956f, 0.02746215f, -0.27195445f, -0.01357073f, -0.00557968f, -0.09654241f, -0.10600209f, -0.01369355f},
  {-0.20992431f, -0.16381624f, -0.14864416f, -0.07788660f, -0.15603171f, 0.24765277f, -0.05522746f, 0.12957184f, 0.17404224f, 0.08492399f, -0.28436908f, 0.04686490f, 0.02724448f, 0.21142250f, -0.05550751f, -0.19156709f, -0.09040194f, -0.11611512f, 0.09589539f, 0.09044187f, -0.06954394f, 0.22384080f, 0.08827706f, -0.10156413f, -0.13555786f, -0.11404337f, -0.05259193f, -0.27012619f, -0.17412747f, -0.18131278f, -0.24533367f, 0.25348783f, -0.22199553f, 0.06766197f, -0.09368230f, 0.29481634f, -0.22006500f, -0.12101562f, 0.26068243f, 0.18304893f, 0.18790521f, -0.23545970f, -0.26047388f, 0.08745952f, 0.23443796f, 0.03442460f, 0.10431036f, -0.05313629f, 0.06455414f, -0.13158837f, 0.01330672f, 0.02726088f, 0.08391842f, -0.21295156f, -0.21041687f, 0.12182517f, -0.13392647f, 0.06492704f, -0.14504981f, 0.01456007f, 0.02272543f, -0.19317698f, -0.16131318f, -0.26524547f},
  {-0.20934305f, 0.21121067f, -0.03575112f, 0.17097074f, -0.08765224f, 0.14127441f, 0.08669069f, 0.11484621f, -0.04780671f, -0.04939444f, -0.08597441f, 0.23203759f, 0.11996540f, 0.24454170f, -0.24277107f, 0.09649498f, 0.21206145f, -0.20999257f, -0.22488385f, 0.17748867f, 0.06826941f, 0.14833893f, -0.15524146f, 0.17832789f, -0.18733838f, -0.10768878f, -0.14754555f, 0.11785771f, 0.05343081f, -0.01136427f, -0.08905038f, 0.16974021f, -0.07724195f, 0.21909310f, -0.07667004f, -0.00412252f, 0.00682461f, -0.13457464f, 0.16004819f, -0.01900933f, -0.08886070f, 0.18234600f, -0.10330262f, 0.04833074f, 0.15978879f, 0.02576884f, -0.17842557f, 0.16851334f, -0.00126815f, -0.11935388f, -0.15537733f, 0.19120775f, 0.07930849f, -0.03906813f, 0.14679554f, 0.20749973f, -0.19325396f, -0.09767997f, -0.09708825f, 0.11315869f, -0.24487397f, 0.05988223f, 0.08243996f, 0.16161272f},
  {-0.08158972f, 0.16026028f, -0.18148598f, 0.15328245f, -0.20072637f, -0.08368582f, 0.15932053f, -0.21652804f, -0.08856711f, 0.10390946f, 0.10056154f, 0.05202740f, 0.13465938f, 0.06439624f, -0.10101066f, -0.07206047f, -0.16772066f, 0.27638987f, 0.05678797f, -0.06529053f, -0.01726384f, 0.25569877f, -0.14119907f, 0.02008110f, 0.02024795f, 0.00925996f, -0.23594469f, 0.16207317f, 0.20413809f, -0.01107556f, 0.09218108f, 0.24774133f, 0.13549162f, -0.19394337f, 0.08367583f, 0.02739887f, -0.05594564f, 0.14091672f, 0.19643472f, 0.20830837f, -0.04747409f, -0.17501517f, 0.27104804f, 0.15197225f, -0.10091931f, 0.26377690f, 0.19067639f, 0.03820676f, 0.07155859f, 0.00280437f, -0.22426890f, -0.10729290f, 0.18467861f, -0.24072684f, -0.10798154f, -0.05051024f, 0.00749113f, 0.19619457f, -0.10324138f, -0.09253632f, 0.18733907f, -0.04093818f, -0.14064331f, -0.01329592f},
  {-0.20345268f, -0.15024641f, 0.06169878f, -0.04350322f, 0.21701497f, -0.06046791f, 0.06114582f, 0.12817201f, -0.30903327f, 0.03266564f, -0.12425757f, 0.21732289f, -0.22031026f, -0.09324896f, -0.25972554f, 0.23411500f, -0.03248079f, -0.01674057f, -0.26050919f, 0.16252615f, -0.11428034f, 0.16243859f, -0.15554592f, -0.10345765f, -0.30073521f, 0.04878472f, 0.01234771f, -0.18237309f, 0.10868518f, 0.03220134f, 0.05055764f, -0.06123639f, -0.08873148f, 0.03419553f, -0.18865211f, -0.11983146f, 0.21113922f, 0.21500880f, -0.03412092f, -0.12812755f, 0.10061593f, -0.02157453f, -0.22116043f, -0.13728385f, 0.02874678f, 0.03341839f, -0.26395431f, -0.21164349f, -0.15887834f, 0.03323350f, -0.25052500f, -0.16982244f, 0.10554472f, -0.18693414f, 0.08817913f, -0.08489638f, -0.16603203f, -0.15676232f, 0.12802002f, 0.13914181f, 0.09718385f, -0.04189616f, 0.09695890f, -0.12110027f},
  {-0.07496995f, 0.20073177f, -0.29526767f, -0.18677160f, -0.13582535f, -0.22375773f, -0.16564131f, -0.01503087f, 0.01054515f, 0.20465375f, 0.13516030f, -0.06051937f, -0.07465089f, -0.00001342f, 0.08338999f, -0.12832256f, 0.10085888f, 0.02199430f, 0.05787312f, -0.06546752f, -0.10363912f, 0.24276681f, 0.14131433f, -0.21238126f, 0.23321262f, -0.06925029f, 0.19942978f, 0.13072588f, -0.02044860f, -0.29368037f, -0.13828380f, 0.04691344f, 0.10594688f, -0.10866770f, -0.16550340f, 0.13104326f, 0.21375145f, 0.02292338f, -0.18609545f, -0.10757863f, -0.24646693f, 0.21062188f, -0.19670738f, 0.02004695f, -0.03704377f, 0.07777688f, 0.08761758f, 0.21047515f, -0.12256277f, -0.19695613f, -0.16706154f, 0.16109176f, 0.23196232f, 0.06902803f, 0.01463958f, 0.05010873f, -0.17523330f, 0.20867677f, -0.03568751f, -0.04664171f, 0.07824422f, -0.22148529f, -0.19320354f, 0.10034414f},
  {-0.18314748f, 0.06779253f, -0.07950103f, -0.11923065f, -0.10466921f, -0.09632576f, 0.13602908f, -0.11801729f, 0.08512643f, 0.00409470f, 0.10674727f, 0.19264746f, 0.19256720f, -0.08909737f, -0.24341394f, -0.11076842f, 0.00925235f, -0.12144997f, -0.00695914f, 0.06350509f, -0.04355780f, 0.12648728f, -0.14534186f, -0.18041809f, 0.06857344f, 0.02545782f, 0.04905918f, -0.03614844f, -0.14696305f, 0.17382728f, 0.18915150f, 0.18461421f, -0.04989227f, 0.03417678f, -0.04655234f, -0.20903018f, 0.20455809f, -0.14631498f, 0.21434765f, 0.02899971f, -0.16530426f, 0.07294049f, 0.25051835f, 0.10835471f, 0.18878131f, 0.14837998f, 0.07198628f, 0.13671297f, -0.09537848f, 0.01475518f, -0.16268398f, 0.23666145f, 0.23663874f, -0.25136748f, 0.06788841f, 0.26754159f, -0.15273082f, -0.00044578f, 0.21287107f, -0.29276460f, 0.10555238f, -0.11728261f, 0.16188270f, 0.25293228f},
  {0.21124837f, -0.00853926f, 0.18996200f, 0.15090019f, -0.10854576f, 0.12431933f, -0.21117033f, 0.00227912f, -0.08954610f, -0.19249164f, -0.21302895f, 0.07821492f, -0.03903563f, 0.15026648f, -0.19262268f, -0.08729842f, 0.00426485f, 0.21848980f, -0.07408413f, 0.04524811f, 0.18905942f, 0.09398858f, -0.10266756f, -0.25507158f, 0.19594848f, -0.27693853f, 0.18299280f, -0.00483039f, 0.20704348f, 0.10475121f, 0.24084069f, -0.03285738f, 0.16052429f, -0.07338842f, 0.03768067f, 0.03713350f, 0.16513301f, 0.26371422f, 0.11499612f, -0.04162281f, -0.06212934f, 0.13175760f, -0.09186744f, -0.20555855f, 0.01109750f, -0.04667281f, -0.09156971f, -0.10322213f, -0.19680615f, -0.18389930f, 0.23091637f, -0.06326457f, -0.02371722f, 0.08939563f, -0.16343836f, 0.21970083f, 0.12905537f, -0.21191776f, -0.07028709f, 0.16621697f, 0.28622267f, -0.03389539f, 0.05165357f, -0.15133204f},
  {0.20916866f, -0.12771776f, 0.28166780f, 0.04680534f, 0.05049482f, -0.00322889f, -0.10817582f, -0.09924016f, -0.19518669f, -0.18500853f, 0.16334344f, -0.09604389f, -0.26272693f, 0.18066452f, 0.12431501f, 0.22431725f, 0.19645281f, -0.21219872f, -0.09759811f, 0.16461127f, 0.11064358f, -0.19044831f, 0.15131848f, -0.08953669f, -0.20329030f, 0.07803729f, 0.02251120f, 0.06785316f, -0.23042852f, 0.25232527f, -0.08132596f, -0.19625707f, 0.15904519f, 0.21437985f, 0.17103252f, 0.18747085f, 0.09787486f, 0.02645298f, -0.18044673f, -0.05654658f, -0.05143281f, -0.09435756f, 0.12893452f, 0.01861170f, -0.27174711f, -0.17140310f, 0.06082987f, -0.27687016f, 0.15439610f, -0.03985021f, -0.02358167f, 0.06504378f, 0.11620437f, -0.10456037f, 0.11045473f, 0.07538053f, -0.08387247f, 0.15758289f, 0.14339571f, 0.04819505f, 0.11225551f, 0.17431471f, 0.12454611f, 0.18992105f},
  {0.06510708f, 0.15498768f, 0.03340438f, 0.07631227f, -0.16884273f, 0.21357122f, 0.21000683f, -0.25119910f, 0.09455438f, -0.18225703f, -0.02996167f, 0.14207694f, -0.18186891f, 0.09939763f, 0.20611839f, -0.01990894f, -0.28178468f, -0.15055625f, 0.01080650f, 0.26675081f, 0.01202833f, -0.10262790f, 0.04617946f, -0.01015707f, 0.09863475f, -0.24769965f, 0.26901275f, 0.13496436f, 0.28833431f, -0.01521666f, 0.03970522f, 0.14027132f, -0.28236189f, 0.22688890f, 0.08021525f, -0.18371455f, -0.10465508f, 0.08024863f, -0.23771861f, -0.07026967f, -0.09093276f, 0.07230531f, -0.20771141f, 0.22238469f, 0.17860796f, 0.20611267f, 0.10902485f, -0.17666328f, 0.15907459f, -0.18425126f, -0.26883706f, -0.07015911f, -0.12123013f, 0.23828384f, 0.08404259f, 0.00263866f, -0.12672548f, 0.22733496f, -0.11763270f, -0.08397289f, -0.25304410f, 0.18175395f, 0.10485829f, -0.10836764f},
  {-0.19007508f, 0.05667147f, 0.10012159f, -0.08992311f, 0.26134580f, -0.15257955f, -0.07306581f, 0.25374258f, -0.07165014f, 0.06702969f, -0.05932831f, -0.09051270f, 0.21798243f, -0.03285076f, 0.13929683f, -0.14325346f, -0.14870296f, -0.28924009f, 0.05367408f, -0.03168020f, 0.19692099f, -0.01757917f, 0.24413764f, -0.13080840f, 0.13374755f, 0.15744223f, 0.15174082f, 0.13349436f, 0.09356887f, 0.02058992f, -0.21298026f, -0.22510739f, 0.19802080f, 0.11106882f, 0.07912637f, 0.01424767f, -0.18321477f, -0.23292132f, 0.10636833f, -0.04130229f, -0.11196169f, -0.03141465f, -0.28149721f, 0.01028414f, -0.15012744f, 0.10839959f, -0.08787996f, -0.06507833f, -0.31657925f, -0.22596857f, -0.03359148f, 0.00989407f, 0.07654566f, -0.16938320f, 0.02421969f, 0.21404606f, 0.11968230f, -0.22954637f, 0.00327206f, -0.19865049f, -0.12317818f, 0.26074383f, -0.22939749f, -0.03253265f},
  {0.02442136f, 0.15540299f, -0.00987556f, -0.26854447f, -0.12903276f, 0.00805790f, -0.14345576f, -0.10899117f, -0.22643150f, -0.21323620f, -0.03012076f, -0.18202250f, 0.03681267f, 0.06719416f, 0.21723939f, -0.15404995f, -0.16579758f, -0.16238163f, 0.06919495f, 0.08546519f, -0.26334020f, 0.21028954f, -0.24265172f, -0.00844430f, 0.13924780f, 0.13366336f, 0.08792561f, 0.21742478f, -0.03025133f, 0.21800858f, -0.17256479f, 0.14924069f, 0.00189256f, 0.11566947f, 0.03749020f, 0.05708617f, 0.01738740f, 0.15802267f, -0.23194094f, -0.24683858f, -0.16790788f, -0.12973751f, 0.26384214f, -0.09711288f, 0.24666375f, -0.05725297f, -0.17608169f, 0.17251167f, 0.16551836f, 0.01860315f, -0.00406997f, 0.09721962f, -0.21267775f, 0.33894446f, 0.30130485f, 0.05248865f, -0.14230636f, 0.08660623f, -0.24665739f, -0.25533000f, -0.15814152f, -0.00634771f, 0.23621884f, 0.16032124f},
  {0.16178992f, -0.07844938f, -0.06706326f, -0.05275767f, 0.27623191f, -0.18348929f, 0.11621206f, 0.08077087f, -0.04351673f, 0.15616514f, -0.02752744f, 0.20912677f, 0.20018952f, 0.00031703f, -0.17069468f, 0.03605877f, 0.18667825f, -0.19984338f, 0.04968657f, 0.10651882f, 0.11365713f, -0.18281192f, 0.14460784f, 0.22382389f, -0.18885882f, -0.14353104f, 0.27153093f, -0.20661999f, 0.13875939f, -0.06164144f, -0.17896223f, 0.19226326f, -0.01769781f, 0.05506265f, -0.13263449f, 0.07840177f, -0.17714298f, -0.10589173f, 0.24431527f, -0.10922620f, 0.10904772f, -0.15072696f, 0.04798730f, -0.16750306f, 0.20662057f, -0.06134599f, -0.11145630f, -0.23325117f, -0.23779187f, 0.01555118f, -0.04658310f, 0.19323696f, -0.01118276f, -0.18841219f, -0.03489957f, 0.14683326f, -0.18446107f, -0.16071872f, -0.24841441f, 0.09474434f, 0.07998957f, 0.01951809f, 0.09125435f, 0.09628673f},
  {0.04777006f, 0.15093219f, -0.11516260f, -0.16169684f, -0.07325784f, -0.15752234f, -0.02863287f, 0.27171627f, -0.26191083f, -0.19038385f, -0.03437142f, 0.25260484f, -0.12403823f, 0.02609055f, -0.27814299f, -0.19537167f, 0.24100330f, 0.16415682f, -0.26136267f, 0.27004501f, 0.09332968f, 0.16801617f, -0.00619084f, 0.03288084f, -0.05060912f, 0.12060980f, -0.15453945f, -0.26744378f, -0.12617205f, 0.06049648f, -0.17396060f, 0.06987360f, 0.21240877f, -0.13257402f, 0.02332065f, 0.02031781f, 0.19952209f, -0.20390455f, 0.12124020f, 0.14258270f, 0.26175585f, 0.06611187f, -0.06951613f, 0.06129127f, 0.14307868f, -0.00476389f, -0.22193381f, 0.16440700f, 0.01454541f, 0.05620289f, -0.11404982f, 0.11702456f, -0.01854113f, 0.01208706f, -0.26949292f, 0.13205986f, 0.21772009f, -0.22729954f, 0.26306134f, -0.04980593f, 0.17799330f, 0.17108260f, -0.02475465f, 0.08335003f},
  {0.22394557f, -0.10027558f, -0.05447172f, 0.10332727f, 0.19535801f, 0.15394032f, 0.08329599f, 0.01242169f, 0.14667550f, -0.16112942f, 0.00086479f, -0.22472094f, -0.08884317f, -0.03123387f, -0.11833477f, 0.09370944f, -0.05858662f, -0.07123634f, -0.13511588f, -0.02957888f, -0.11212675f, -0.21139102f, 0.08295525f, 0.10955110f, 0.02380143f, 0.01882752f, -0.03011976f, 0.11756716f, -0.03301148f, -0.07364745f, -0.27773446f, -0.04983131f, -0.04542816f, 0.00285894f, -0.03413907f, 0.04429772f, 0.04442075f, 0.06631801f, 0.17788556f, 0.12421428f, 0.26247081f, -0.28934434f, -0.23389903f, -0.25501817f, 0.05074115f, 0.16340116f, -0.10645107f, 0.17727302f, -0.30671704f, 0.20199005f, -0.03951900f, -0.17482239f, 0.04592495f, -0.20192216f, -0.18886375f, -0.05826806f, 0.13401137f, 0.02112216f, -0.07240215f, 0.05373665f, 0.12403879f, -0.09160685f, -0.11670033f, -0.24114627f},
  {-0.07761180f, -0.00215671f, -0.23774219f, 0.07899556f, 0.07294912f, -0.16434664f, -0.03538027f, -0.07226764f, 0.24371471f, 0.02329277f, 0.17050068f, 0.00002157f, -0.25795701f, 0.13775748f, 0.15360540f, 0.00241927f, 0.20682311f, 0.16590807f, -0.10119905f, -0.18038313f, 0.10809777f, -0.13830121f, 0.28795689f, 0.24939467f, -0.08339467f, -0.14044848f, 0.32259512f, -0.17027685f, 0.12504555f, -0.06764372f, 0.07926667f, -0.20945494f, 0.04780657f, -0.04940305f, -0.00977928f, -0.19551709f, 0.16553274f, 0.11156847f, -0.14246686f, -0.21430297f, -0.26461238f, -0.00399448f, -0.05355288f, 0.05943795f, -0.11603876f, -0.12931317f, 0.16796991f, 0.01567272f, 0.18113430f, -0.19062500f, 0.11258604f, 0.00013030f, 0.00813455f, 0.08086075f, 0.04664470f, 0.26890528f, -0.17982742f, -0.15315980f, 0.17306954f, 0.02128736f, -0.16960593f, -0.23429629f, -0.24700153f, 0.15763217f},
  {-0.12714237f, -0.10598554f, -0.10361489f, -0.05914951f, -0.15560198f, 0.06751848f, -0.22720701f, 0.18345311f, -0.18115248f, -0.01481149f, 0.21585982f, 0.08436286f, -0.01134794f, -0.08927812f, -0.13759877f, 0.05344708f, 0.24828155f, 0.01470854f, -0.00198239f, 0.13839234f, 0.04162435f, -0.25718910f, 0.01076702f, 0.26802257f, -0.25138605f, 0.10986667f, -0.13317567f, -0.00171175f, -0.22111273f, -0.03469362f, 0.15817297f, -0.10119306f, 0.07781050f, 0.18903503f, 0.14469673f, -0.11128823f, -0.00737456f, -0.21977125f, 0.26241988f, 0.18892002f, 0.07183454f, 0.19430570f, -0.05216371f, 0.11294701f, -0.26012793f, 0.06330366f, -0.17400546f, 0.07647692f, 0.09059044f, 0.04587837f, -0.21814181f, -0.08244307f, -0.10031138f, -0.11144754f, -0.26893300f, 0.25146329f, 0.08207954f, -0.10727975f, 0.01876321f, -0.05233775f, 0.02798880f, 0.03391677f, 0.15791281f, -0.02869832f},
  {0.22822417f, 0.18208212f, -0.20837282f, 0.24516216f, -0.24362749f, 0.10551327f, -0.04067401f, 0.16196218f, 0.22294480f, 0.17330329f, 0.12073304f, -0.11603580f, -0.20323974f, -0.03334841f, -0.10521378f, 0.11182739f, -0.06165465f, 0.29304755f, 0.09979086f, 0.11079652f, -0.22027136f, 0.19852820f, 0.24901946f, -0.03826825f, 0.14547597f, 0.10503143f, -0.15898587f, 0.01967978f, -0.03743770f, -0.15918036f, -0.09427178f, -0.19494498f, -0.25642130f, -0.22127327f, 0.29086739f, -0.02065117f, 0.21044856f, 0.00577527f, -0.11378868f, 0.01309354f, -0.08646491f, -0.22886197f, 0.12518699f, -0.18553422f, 0.11802397f, 0.13315800f, -0.15930049f, -0.13607071f, 0.16901594f, 0.04458313f, -0.23368610f, 0.26715887f, -0.22182254f, 0.12823707f, 0.28012359f, -0.15245354f, -0.23219614f, -0.16707441f, -0.12960239f, -0.17455380f, 0.10192741f, -0.24885921f, 0.05365315f, 0.27206570f},
  {0.20883708f, 0.01006886f, -0.10318244f, 0.10591681f, 0.06381564f, 0.01902326f, -0.21445855f, 0.23661022f, -0.05624907f, -0.16635387f, -0.03769045f, -0.04219793f, 0.12733991f, 0.13582186f, 0.06497145f, -0.26642230f, -0.02071894f, -0.06009411f, -0.25179935f, -0.10322642f, 0.18920834f, -0.23033869f, 0.04051635f, -0.09032021f, -0.31131393f, -0.11485786f, 0.27216917f, 0.10994583f, 0.19057252f, -0.02704037f, -0.16684735f, 0.00781061f, -0.02878954f, 0.20557031f, -0.27031004f, -0.00284955f, -0.13152111f, -0.15431736f, 0.13781203f, -0.02991411f, -0.03293534f, -0.05356605f, -0.10047209f, 0.19221860f, 0.14753886f, 0.16361788f, 0.18041265f, -0.14686699f, 0.03557099f, -0.07473318f, -0.10545880f, 0.20748381f, -0.18982744f, 0.14403704f, -0.10075454f, 0.11370981f, 0.11720933f, 0.20362841f, 0.13585666f, 0.03602871f, -0.24342938f, 0.01545570f, -0.23274532f, 0.07891937f},
  {0.08298499f, 0.03426573f, -0.16323189f, -0.17562519f, 0.18548325f, -0.12161600f, -0.25204068f, -0.18772826f, 0.19656584f, 0.10485555f, -0.04258706f, -0.07218585f, -0.09666532f, 0.14981230f, 0.01396910f, -0.17595625f, -0.14403476f, -0.24534367f, 0.07642280f, 0.16414125f, -0.03313352f, -0.29024440f, -0.19275451f, 0.28611845f, -0.17724124f, 0.16371354f, 0.09297810f, -0.10719027f, -0.17110121f, -0.22451375f, 0.09957259f, 0.13873835f, 0.08390470f, 0.06422231f, -0.28866488f, 0.26003355f, 0.17948471f, -0.17375621f, 0.27022266f, 0.05024641f, 0.11007965f, 0.13023764f, 0.06923211f, 0.15301105f, -0.23184253f, -0.13535552f, 0.25527874f, -0.20914122f, -0.11919771f, -0.08848529f, 0.00294515f, 0.09182728f, 0.28586733f, -0.18547982f, -0.26625535f, -0.10866699f, 0.28096098f, 0.08775595f, -0.02201600f, 0.13231845f, 0.15554965f, 0.20796567f, 0.12013362f, -0.16638505f},
  {0.16021791f, -0.04917717f, 0.20503020f, 0.12490223f, 0.19287804f, 0.13951136f, -0.18416393f, 0.06168503f, 0.19856249f, 0.19394152f, -0.19791140f, -0.15475763f, -0.20153034f, 0.11722455f, 0.09215141f, -0.16548364f, 0.00714116f, 0.10865436f, 0.09029611f, 0.05295303f, 0.10508386f, -0.03898062f, -0.10822872f, 0.07576384f, 0.00517985f, 0.20135680f, 0.08658953f, 0.09975538f, -0.19391747f, -0.03762917f, -0.21155815f, -0.14046159f, 0.11715030f, 0.28610936f, -0.26560542f, -0.02368493f, 0.18145649f, -0.20196413f, 0.04992454f, 0.10035644f, 0.10978443f, -0.13440683f, -0.14170170f, 0.19392271f, -0.02596566f, -0.30280602f, 0.14528999f, -0.30185536f, 0.06900131f, -0.20063438f, 0.24054319f, -0.04576614f, -0.06089668f, -0.21769693f, -0.16784821f, 0.22294874f, 0.29699597f, -0.06919245f, 0.04182548f, 0.08706494f, 0.16818056f, 0.07153866f, -0.11171313f, -0.07718278f},
  {0.02391372f, -0.18564175f, 0.07446376f, -0.10186126f, 0.16849387f, -0.12968738f, 0.04841955f, 0.00472764f, -0.00135209f, -0.23012853f, 0.08792844f, 0.06963488f, 0.00637494f, 0.03793693f, 0.07088374f, 0.11418910f, -0.11533978f, 0.10504185f, -0.06174707f, -0.17339869f, -0.21938702f, -0.08211897f, 0.13230722f, 0.11117058f, 0.01730596f, 0.00222659f, -0.03291164f, -0.11863539f, -0.06011854f, 0.00318354f, -0.15766411f, -0.20117304f, 0.01656254f, 0.15404075f, 0.21978737f, 0.24056241f, 0.12237759f, -0.06187712f, 0.07510982f, 0.07210691f, -0.16658954f, -0.01133708f, 0.13695775f, 0.02799488f, -0.01033427f, -0.01280252f, -0.20173682f, -0.12539570f, -0.09124167f, -0.23577191f, -0.24163242f, 0.19625321f, -0.16956165f, 0.04378814f, -0.13534211f, 0.26653615f, -0.09227604f, -0.09504385f, 0.16047238f, 0.11358462f, -0.17762566f, 0.19091600f, -0.01983412f, 0.01235049f},
  {-0.15860201f, -0.24508312f, 0.12707487f, 0.00134204f, 0.01688433f, 0.16867948f, 0.08234635f, -0.14207108f, 0.03170306f, -0.17066982f, 0.11640275f, 0.09423917f, 0.21258637f, -0.18556066f, -0.25800350f, -0.12681793f, -0.11770254f, -0.18780078f, 0.18272176f, -0.08413427f, -0.07914513f, 0.11090323f, -0.01418925f, 0.16167180f, -0.26767609f, -0.00427683f, -0.20592663f, -0.26034835f, 0.16929732f, -0.22643343f, -0.00572899f, -0.03298732f, -0.06963201f, 0.23405735f, -0.29006320f, 0.11495642f, 0.23300500f, -0.01905553f, 0.23009519f, -0.23888527f, -0.01423821f, -0.14937395f, 0.03340003f, 0.26972133f, -0.15370859f, 0.03843605f, -0.12775485f, -0.01501266f, -0.08468874f, 0.20771825f, 0.07810245f, -0.05559174f, -0.16238682f, -0.23371792f, -0.20588475f, -0.08782343f, 0.18155791f, 0.03622251f, 0.04022812f, -0.19902313f, 0.17931283f, 0.12987812f, -0.29524425f, 0.05589020f},
  {-0.02928901f, -0.14935896f, -0.03113057f, -0.02408614f, -0.19912136f, 0.21621792f, 0.22847700f, 0.05222380f, -0.01292222f, -0.05539165f, 0.09719233f, 0.02529656f, -0.21120065f, -0.02865667f, 0.19084209f, -0.02091419f, -0.21646026f, 0.17751841f, -0.14514999f, -0.14719592f, -0.19157843f, -0.07342158f, 0.11394322f, -0.01267418f, -0.12009529f, 0.17407584f, 0.15676655f, 0.24801791f, -0.09269967f, 0.03774169f, 0.28082359f, 0.08874747f, -0.23980916f, -0.23404670f, 0.03895885f, 0.19117704f, 0.02380775f, 0.04803657f, -0.21459529f, 0.06531150f, 0.13935304f, -0.01885375f, 0.21648139f, 0.23679020f, -0.12104408f, 0.03621257f, -0.14324337f, 0.15540224f, 0.10265783f, 0.08226556f, 0.12350021f, -0.05492842f, 0.15131806f, 0.09383386f, -0.10356128f, 0.08004342f, 0.15380582f, -0.11966697f, 0.14815326f, 0.18129665f, -0.11656974f, 0.24026579f, -0.09710474f, -0.09060781f},
  {-0.11120895f, 0.12730043f, 0.10141750f, -0.18370353f, 0.02062452f, 0.15335082f, -0.28747806f, 0.21748458f, 0.15690626f, 0.06132654f, 0.20962940f, -0.00893615f, 0.26303336f, 0.14621879f, 0.01308388f, -0.19020134f, 0.19444087f, -0.07912678f, -0.16260725f, -0.18960901f, 0.07947244f, -0.00751173f, 0.14741719f, 0.22446081f, -0.25317016f, 0.12055258f, -0.11369211f, 0.09779848f, 0.12528087f, -0.05876526f, 0.06953305f, -0.06898236f, 0.01960330f, 0.20936930f, -0.07297920f, -0.02579422f, -0.00961481f, 0.10356156f, -0.06032407f, -0.16603349f, 0.13720390f, 0.09462903f, -0.30182326f, -0.04007249f, -0.18513483f, -0.10496967f, 0.01984564f, 0.09235001f, -0.00837768f, 0.04747681f, -0.00673798f, 0.20074354f, 0.03906448f, 0.16108038f, -0.02704120f, -0.13448822f, 0.12116811f, -0.08265840f, 0.12791802f, -0.23255128f, -0.13254000f, 0.20951901f, -0.25223899f, 0.09403592f},
  {-0.10042842f, 0.04823249f, 0.12210578f, 0.01401026f, -0.04873033f, -0.05746047f, -0.26368538f, -0.05705286f, 0.03335864f, 0.19980966f, 0.18602179f, 0.16077170f, 0.11735015f, 0.09554759f, -0.16276303f, 0.16836517f, 0.08722904f, -0.03596381f, -0.21963964f, 0.02861127f, 0.01894274f, 0.15542632f, 0.02554716f, -0.02693440f, 0.16538785f, -0.17139032f, -0.02588725f, -0.25019041f, 0.09360424f, 0.17563385f, -0.11182495f, 0.15667284f, -0.11110357f, 0.25922164f, 0.07196590f, 0.19071603f, -0.21179970f, 0.18763563f, 0.13293290f, -0.12170731f, 0.19497469f, -0.12037750f, 0.11662548f, -0.13214000f, 0.05208580f, -0.02579406f, -0.19147490f, -0.19337542f, -0.30649352f, -0.05635860f, -0.08301341f, 0.08141275f, -0.08735351f, -0.14575528f, 0.04805034f, -0.17258917f, 0.20750822f, 0.17205834f, 0.12000861f, 0.02773334f, 0.17917420f, -0.12017961f, -0.27214694f, -0.15993176f},
  {0.19121036f, -0.29249585f, 0.06101374f, 0.24268851f, 0.22899459f, 0.07957380f, -0.28724939f, 0.19439602f, 0.05027205f, -0.15263943f, -0.22009429f, 0.21925211f, 0.08974165f, 0.21354154f, 0.13693726f, 0.01863792f, 0.01089173f, -0.08262742f, -0.08854224f, 0.01353155f, 0.17255971f, 0.03025119f, 0.22298855f, 0.00259603f, 0.01460280f, 0.07591692f, 0.07993133f, 0.02597169f, -0.16189721f, -0.06972363f, -0.23240335f, -0.02378131f, 0.01541198f, 0.11971972f, 0.16057923f, 0.09539689f, 0.11313832f, -0.06210553f, 0.08795702f, -0.21517889f, -0.09024172f, -0.12285136f, -0.11009172f, -0.17355484f, -0.19557419f, -0.13796104f, 0.27350038f, -0.11050460f, -0.08469852f, -0.16420721f, 0.10144207f, -0.08372536f, -0.08928254f, -0.06891441f, -0.32581642f, -0.20192847f, -0.12302566f, -0.21138871f, -0.15552847f, -0.08540799f, 0.16603559f, 0.05870044f, -0.10459290f, -0.17053933f}
};

const float b1[H1_SIZE] = {
  0.28048337f, -0.10602295f, -0.09667162f, 0.09535611f, -0.09459671f, 0.04792748f, -0.04399893f, 0.17221929f, 0.10507172f, 0.14025708f, 0.20162524f, -0.20727329f, 0.00787028f, 0.07851589f, -0.00908912f, -0.03758438f, 0.21634686f, 0.21799470f, 0.12060449f, -0.01119876f, 0.26914191f, 0.20937860f, 0.26934275f, -0.15078992f, 0.16194922f, -0.15299416f, -0.09818456f, -0.27529481f, 0.04515339f, 0.01465188f, -0.20711391f, -0.01356074f, 0.04326588f, 0.00613479f, -0.13436863f, -0.01512783f, 0.12702107f, -0.21745311f, -0.10763285f, 0.01599341f, 0.24627091f, 0.07926552f, 0.09624836f, 0.09701461f, 0.12583701f, -0.17303759f, 0.12268377f, 0.26800102f, 0.04783256f, 0.18636699f, 0.15054867f, -0.10324205f, 0.32696030f, -0.20019521f, 0.04244677f, -0.13204348f, -0.10720167f, -0.02252239f, 0.00067009f, -0.00468828f, 0.07097692f, -0.18377453f, -0.24470018f, 0.00952377f
};

const float W2[H1_SIZE][H2_SIZE] = {
  {-0.01180011f, 0.23846424f, 0.12746882f, 0.38447911f, 0.15550044f, 0.04357328f, 0.13625528f, 0.02303515f, -0.03222945f, 0.09930427f, -0.03129797f, 0.26286262f, 0.23470064f, 0.26409531f, 0.37458366f, -0.05554290f, -0.18651401f, 0.27075151f, 0.03980630f, 0.13184874f, 0.21079734f, 0.18910667f, -0.14127891f, -0.23183084f, -0.08469923f, -0.14201941f, 0.18199584f, -0.06364850f, -0.10884494f, -0.31787834f, 0.00462571f, 0.05290354f},
  {-0.02966813f, -0.21818809f, -0.01141336f, -0.06843389f, 0.14562269f, 0.01228703f, -0.03613447f, -0.08458975f, 0.28632912f, 0.06750739f, 0.17147291f, -0.13585845f, 0.03796717f, -0.25152242f, 0.02756225f, 0.20273799f, 0.00182815f, -0.23575847f, -0.18550296f, -0.04553713f, -0.15644264f, -0.18231907f, 0.19559646f, 0.01610418f, -0.07047091f, 0.17162651f, -0.19727361f, 0.11067112f, -0.05139115f, 0.23638137f, 0.03971437f, 0.14702974f},
  {0.18152764f, -0.12198850f, 0.29511577f, -0.05809651f, -0.03830726f, -0.12539671f, 0.05966491f, -0.19672765f, 0.08010698f, 0.08779254f, 0.15621775f, 0.15627739f, -0.06922865f, -0.15658557f, -0.12371212f, -0.16725947f, -0.23801443f, -0.08355713f, -0.08474956f, 0.23485613f, -0.00715764f, -0.04747912f, 0.11575224f, -0.10437449f, 0.02919684f, 0.04294854f, -0.02185878f, -0.12029053f, 0.24953049f, 0.27375674f, 0.08596265f, 0.01835839f},
  {0.02016682f, -0.09524225f, 0.02412840f, -0.15278953f, 0.02141148f, 0.04298995f, -0.11028134f, 0.27456161f, 0.25205678f, 0.15325007f, 0.05598885f, 0.23829272f, -0.23879671f, 0.16873771f, -0.12623020f, 0.12993094f, -0.14239150f, 0.31502837f, 0.28614259f, -0.11064603f, 0.03854297f, 0.28965682f, -0.01428066f, 0.06397747f, 0.03752815f, -0.03585150f, -0.12328833f, -0.05180050f, 0.15696058f, -0.07299260f, -0.03968387f, -0.01110202f},
  {0.00834854f, 0.21773729f, 0.28456870f, -0.01545962f, 0.20580465f, 0.09993919f, 0.08348291f, 0.26329926f, -0.07261858f, -0.15827727f, 0.16005927f, 0.01298843f, 0.14787950f, 0.16620117f, -0.19815366f, 0.16675419f, -0.04212237f, 0.03718884f, 0.13590297f, 0.18668650f, -0.26221764f, 0.04178026f, 0.14057618f, 0.15699594f, 0.13984394f, -0.20042464f, -0.11636751f, -0.07617313f, 0.19692445f, -0.06182693f, -0.10940065f, 0.21037461f},
  {-0.27307627f, 0.30213404f, 0.15522374f, 0.22535194f, -0.04701761f, -0.26885673f, 0.23274432f, 0.22446026f, 0.22940877f, -0.18172085f, 0.10870345f, 0.20437396f, 0.07269432f, 0.11397324f, 0.21504061f, 0.03207956f, -0.26343787f, 0.04984516f, -0.07956655f, -0.07436207f, -0.06918519f, -0.10567582f, -0.03149434f, -0.17171352f, 0.21333562f, 0.19051114f, -0.23024270f, 0.19888240f, 0.09809469f, -0.02868583f, -0.17011324f, -0.02171389f},
  {0.12065742f, 0.07591929f, -0.16839942f, -0.22628807f, -0.01625841f, -0.17681140f, -0.15705335f, -0.12046540f, 0.13941787f, 0.33131903f, 0.05478030f, 0.17789960f, -0.12292797f, -0.07296564f, -0.16469385f, 0.05250572f, 0.33279765f, 0.03522859f, -0.11869692f, 0.03633830f, -0.22161779f, 0.16998430f, 0.09768545f, 0.02506877f, 0.11390275f, 0.03529103f, -0.22007318f, 0.02512934f, -0.15260896f, 0.19187060f, 0.16508444f, 0.13262023f},
  {-0.00145954f, 0.06814074f, -0.12072648f, 0.23861140f, -0.05430331f, -0.00455913f, -0.03930975f, -0.10187059f, 0.13786657f, -0.27091673f, 0.10147566f, -0.01787140f, -0.25133723f, 0.02027865f, -0.19279678f, -0.13857085f, 0.06401183f, -0.14138080f, 0.26408625f, -0.28434685f, -0.16781737f, 0.18065061f, -0.07326161f, -0.20040567f, -0.01701521f, -0.13297394f, 0.15463567f, -0.15705064f, 0.20973015f, 0.23862348f, 0.00600110f, 0.18692954f},
  {0.05791062f, 0.36722741f, -0.20176749f, 0.25037882f, 0.01910756f, 0.07017846f, 0.10315665f, 0.20277338f, -0.19121456f, -0.32776371f, 0.09512625f, 0.20130172f, 0.31495184f, 0.26285270f, 0.38903335f, 0.08478867f, -0.25120890f, 0.00927071f, 0.16899247f, 0.13552175f, -0.15468277f, -0.01720457f, 0.11907835f, -0.05197192f, -0.10863070f, -0.01868205f, -0.15781742f, 0.02525191f, -0.02259783f, -0.34044084f, 0.09119946f, -0.05229099f},
  {0.20107368f, 0.27005395f, -0.14703926f, 0.23762676f, 0.03383192f, 0.23868670f, -0.15422174f, 0.17739441f, 0.08898858f, -0.10069262f, -0.12025741f, 0.17926422f, 0.19945458f, -0.02988147f, 0.17948844f, -0.07650941f, 0.06439211f, -0.01603748f, 0.25301459f, -0.00590663f, 0.04070101f, -0.15624413f, -0.24577604f, -0.01446380f, -0.18373936f, 0.17549302f, -0.25513580f, -0.02409753f, -0.00653912f, -0.31693622f, -0.27262011f, -0.03686517f},
  {-0.02624511f, 0.02231871f, 0.07015890f, 0.11211427f, -0.18364552f, -0.03324617f, 0.25142303f, 0.07041205f, 0.12044613f, -0.03970794f, 0.18396161f, 0.18968536f, -0.01519673f, 0.23788054f, -0.13351408f, -0.25350490f, 0.16953738f, 0.21388793f, -0.05546533f, -0.09963357f, -0.22768739f, -0.01093973f, 0.16194390f, 0.01270077f, -0.05912513f, 0.00603359f, -0.25784111f, -0.14449713f, 0.13137230f, 0.25583756f, 0.12932760f, -0.23845294f},
  {0.18449214f, 0.18197623f, 0.18605329f, 0.03406416f, -0.00360018f, -0.09978761f, -0.16725907f, -0.08703945f, -0.05663570f, -0.01219270f, 0.11008478f, 0.03828263f, -0.18752845f, 0.23378392f, 0.27133644f, 0.11698947f, 0.19649373f, 0.06579749f, 0.27251586f, -0.23421021f, -0.08601283f, -0.09552135f, -0.11708875f, -0.16661556f, 0.10288397f, 0.11325826f, 0.02565465f, -0.22797637f, 0.20247886f, 0.10929859f, -0.02147116f, 0.06725517f},
  {-0.01811759f, 0.01645964f, 0.23340209f, 0.08574011f, 0.02495637f, 0.30495238f, 0.14100741f, -0.09347514f, -0.12324196f, -0.47621691f, 0.04112770f, 0.06944548f, -0.09745998f, 0.34736577f, 0.21916907f, -0.15237607f, -0.20191839f, 0.36121327f, -0.11983684f, -0.08109259f, 0.18963537f, 0.01180671f, -0.05891871f, -0.20882659f, -0.24158530f, -0.18410036f, -0.04145797f, -0.11683478f, -0.18224134f, 0.13674556f, 0.25520173f, 0.13122626f},
  {0.14391588f, 0.05765442f, 0.28372973f, 0.07280622f, 0.29035345f, 0.41888753f, 0.16775800f, 0.40630218f, 0.12895884f, -0.26394308f, -0.05965261f, 0.19827615f, -0.16795649f, 0.23565139f, 0.48243976f, -0.17495318f, -0.08187676f, 0.47793317f, 0.30329984f, 0.30882481f, 0.13018645f, 0.31669617f, -0.04254374f, -0.32403845f, -0.10633302f, 0.10018507f, -0.14505009f, 0.30492699f, 0.14269899f, -0.31211716f, -0.00541771f, 0.11418747f},
  {-0.02860279f, -0.19652410f, -0.26219815f, -0.03315261f, 0.22735120f, -0.14802513f, 0.06586396f, -0.10714089f, -0.06770897f, 0.26437616f, 0.17485668f, -0.16251796f, -0.03242765f, -0.22475323f, 0.03128333f, 0.06511736f, -0.15127271f, -0.07472181f, -0.06376108f, 0.23164205f, 0.27250472f, -0.20291287f, 0.15043072f, 0.02452824f, -0.05954228f, 0.17611532f, 0.19640459f, 0.21434586f, 0.04424457f, -0.07969873f, 0.11570698f, -0.00011823f},
  {-0.00017773f, -0.06168041f, 0.09824758f, -0.11127008f, -0.15781979f, 0.24681038f, -0.22751279f, -0.01688971f, -0.12015741f, -0.19104484f, -0.18420748f, -0.17652111f, 0.22419967f, -0.09353022f, 0.30677712f, 0.02940000f, -0.14484586f, 0.04279017f, -0.00330578f, 0.17329845f, -0.04897289f, -0.07927074f, 0.17968433f, 0.25794190f, 0.16334201f, -0.04752849f, 0.12460893f, 0.05886772f, -0.02623425f, -0.19019091f, 0.02002770f, -0.10208116f},
  {-0.11086975f, 0.22872594f, -0.09965903f, -0.13972457f, -0.16271697f, 0.20136184f, 0.05368095f, 0.02127586f, 0.23527254f, 0.17601469f, -0.10863237f, 0.15707503f, 0.11857680f, 0.06878140f, -0.12994337f, 0.16466926f, -0.02431226f, -0.04776273f, 0.07280684f, -0.26529485f, -0.22871114f, 0.19095716f, -0.22106972f, 0.02578878f, 0.05678725f, -0.23696096f, 0.22069818f, -0.21955918f, -0.04356346f, -0.05907720f, -0.10347929f, -0.25821260f},
  {0.09951797f, 0.30042833f, -0.12774098f, 0.15005845f, 0.16448401f, 0.15427984f, -0.02152528f, -0.03968464f, -0.04925624f, 0.17399253f, 0.22667772f, -0.10527808f, -0.07295684f, 0.20307305f, 0.20610845f, 0.21957704f, 0.16690616f, -0.00365872f, 0.11775155f, 0.11828934f, -0.18118541f, 0.10031278f, 0.13115132f, -0.03186714f, 0.14630146f, 0.07580046f, 0.21334015f, -0.27247813f, -0.07193478f, 0.06210439f, -0.16158867f, 0.09482841f},
  {0.15738463f, -0.17192407f, -0.02187818f, 0.05306910f, -0.03733455f, 0.19535640f, 0.13882650f, 0.12262517f, 0.08546939f, 0.05112362f, 0.28858981f, 0.12266940f, 0.14408582f, 0.17659572f, -0.07772159f, 0.13790496f, -0.11373932f, -0.03955425f, -0.16559815f, 0.27441224f, 0.21193275f, 0.04431567f, 0.14522190f, 0.01513189f, 0.21937549f, 0.00469911f, -0.00000000f, -0.19927061f, 0.10706076f, 0.11964351f, -0.10994102f, -0.22271797f},
  {0.12667800f, -0.23933074f, 0.16240758f, 0.25745758f, 0.00759537f, -0.17525224f, 0.15828298f, 0.17117891f, 0.09893625f, 0.26751873f, -0.19457290f, 0.02314314f, 0.10425612f, 0.12912540f, -0.14425975f, 0.12325615f, 0.02564360f, -0.04597980f, -0.15720250f, 0.15968633f, -0.19713761f, -0.08218013f, -0.03179662f, 0.21276361f, 0.14001895f, 0.11307229f, -0.13597351f, 0.00962059f, 0.07469889f, 0.22715256f, 0.24052829f, -0.23307812f},
  {0.05878885f, -0.17382379f, 0.07811391f, -0.04658017f, -0.04253020f, -0.09950323f, 0.11907282f, -0.02419903f, 0.20638260f, -0.03566362f, -0.23900591f, 0.20208840f, -0.14145647f, -0.05021223f, 0.13300319f, -0.11198865f, -0.26334682f, -0.00000009f, 0.34584022f, 0.03942199f, 0.04893522f, 0.13316919f, -0.10400581f, 0.07224555f, 0.17885515f, -0.21338116f, -0.12432855f, -0.11748988f, 0.02276625f, 0.29271412f, -0.17778657f, -0.00358969f},
  {-0.21307713f, 0.31090820f, -0.15283661f, 0.03306193f, 0.18313658f, 0.09578753f, -0.04695861f, -0.00017537f, -0.03170728f, -0.05729943f, -0.06422959f, 0.04179404f, -0.15639898f, -0.09659895f, 0.13252926f, 0.20957948f, 0.08117453f, -0.14366001f, -0.17948638f, 0.27021900f, -0.05532493f, -0.15595990f, 0.06580203f, 0.06644750f, 0.07018010f, -0.12227117f, -0.25777191f, 0.24079098f, -0.08713038f, 0.08928068f, 0.05099169f, 0.04446247f},
  {0.01419419f, 0.01500048f, 0.07185410f, 0.36203942f, 0.25770950f, -0.07687347f, -0.12247525f, 0.33108860f, 0.18727851f, 0.01490619f, -0.16660298f, 0.15886527f, 0.16598961f, 0.21311666f, 0.13173147f, -0.25915763f, -0.10751189f, 0.18553185f, 0.04729336f, 0.27189565f, 0.00532058f, 0.23253462f, -0.25671113f, -0.10043195f, 0.18730350f, -0.20936048f, -0.26176035f, 0.06800733f, -0.13954836f, 0.02485642f, 0.18675706f, -0.04865558f},
  {-0.14322490f, 0.02573234f, 0.15835395f, -0.16933069f, 0.09214679f, 0.04356776f, 0.12532514f, -0.06290281f, 0.18937162f, -0.25670689f, -0.18181233f, 0.25814709f, 0.10027310f, -0.23971745f, -0.08243082f, -0.16924177f, -0.14679337f, -0.04888305f, -0.09240634f, -0.05330785f, 0.09492096f, 0.14025153f, 0.10742786f, -0.20666225f, 0.27276564f, 0.14681920f, 0.13443795f, 0.13609402f, 0.27686849f, 0.06995427f, -0.11633545f, 0.04426469f},
  {0.12680762f, 0.16583115f, -0.01361661f, -0.13543987f, -0.01129034f, 0.19248620f, 0.02460943f, 0.05885732f, -0.13051403f, 0.00315521f, 0.28283787f, 0.11203535f, 0.15543614f, -0.02163951f, 0.11141785f, -0.16975510f, 0.14048228f, 0.01615307f, -0.07837745f, 0.13052373f, 0.26036757f, -0.15974250f, 0.18940495f, -0.00194961f, -0.03261406f, -0.21370551f, -0.09846489f, -0.02590976f, -0.22834678f, 0.00006228f, 0.14253566f, -0.19185899f},
  {0.06471911f, -0.00604447f, 0.17219004f, -0.05994182f, -0.10563944f, -0.21934667f, -0.13220888f, -0.10991780f, 0.17150131f, 0.24733619f, 0.14901356f, 0.14951055f, -0.21317118f, -0.13098837f, -0.08213758f, -0.14952837f, -0.02548742f, 0.06954560f, 0.03589284f, -0.11110336f, 0.11375948f, 0.22709613f, 0.00125310f, 0.15452790f, 0.30258882f, -0.09364904f, -0.09047453f, -0.10772514f, 0.28384948f, 0.25764123f, -0.15584102f, -0.06281532f},
  {0.11827110f, 0.16780914f, -0.09415486f, 0.48358509f, 0.20240167f, 0.26298532f, 0.19660950f, 0.30990541f, -0.00511275f, -0.06106666f, -0.19276646f, 0.23372668f, -0.04534549f, 0.19800070f, 0.07196657f, -0.21684077f, -0.26422447f, 0.08400831f, 0.17872068f, 0.25525135f, 0.12834473f, -0.11094133f, -0.31903517f, -0.30647978f, -0.25783670f, 0.19364519f, -0.12721953f, 0.03169681f, -0.13403328f, -0.27258739f, -0.08356857f, 0.04114120f},
  {-0.17127781f, -0.26580033f, 0.02212436f, -0.14268802f, -0.06989960f, 0.13210504f, 0.03818558f, 0.02065727f, -0.07567935f, 0.09090780f, 0.12451972f, 0.06553662f, 0.03486026f, -0.24472545f, -0.06702722f, -0.06100199f, 0.29966515f, 0.07017921f, -0.01658820f, -0.27390370f, -0.02378691f, -0.15003179f, 0.03757460f, -0.00406835f, 0.20230867f, -0.15498950f, -0.05319896f, 0.12574205f, -0.16384077f, 0.11999427f, -0.02183895f, -0.02098782f},
  {0.21368760f, -0.20785224f, -0.00588013f, 0.08398783f, 0.12242302f, 0.07271565f, -0.08701673f, -0.15924101f, 0.15221985f, 0.07736089f, 0.20262539f, 0.23293275f, 0.23699203f, -0.00333961f, -0.03634192f, 0.12059002f, 0.01119424f, -0.11508336f, 0.19384420f, 0.21692094f, 0.01212265f, -0.16976251f, -0.02109350f, 0.13716514f, 0.21541741f, -0.18387195f, -0.22654174f, 0.11555896f, -0.01293235f, 0.03974631f, 0.21323933f, -0.22707628f},
  {-0.00012661f, -0.28467333f, 0.00839187f, 0.09002987f, -0.02609885f, 0.15949647f, 0.01205058f, -0.16181859f, -0.14991646f, 0.05983051f, 0.05410106f, -0.28180051f, -0.14826001f, -0.11855783f, 0.03889573f, 0.06581149f, 0.22853470f, -0.31075311f, -0.15314250f, 0.01531816f, -0.11510450f, -0.25840300f, 0.29513359f, 0.20664641f, 0.12993088f, -0.24644333f, 0.12210970f, -0.04555959f, 0.11212742f, 0.25643653f, 0.20094116f, -0.00964518f},
  {-0.21617962f, 0.07798684f, 0.19446281f, 0.12686248f, -0.12549999f, -0.21045922f, 0.20143783f, 0.11675706f, 0.21169344f, 0.23345526f, 0.13741496f, 0.05962426f, 0.13998666f, -0.00865672f, 0.05731049f, -0.17791586f, 0.06333967f, 0.12566760f, 0.00317082f, -0.16282833f, -0.12862526f, -0.00722843f, -0.05917149f, 0.05850865f, 0.27060524f, 0.01688809f, -0.16176291f, -0.26851940f, 0.08128583f, 0.01853287f, 0.13323201f, 0.06025654f},
  {0.12022340f, 0.06938498f, 0.15503520f, 0.13570717f, 0.28468373f, 0.17632034f, -0.01161046f, 0.03578183f, -0.06858215f, -0.01914381f, -0.12261135f, 0.20163390f, -0.07417232f, 0.20119400f, 0.34501892f, 0.12162712f, 0.00354921f, 0.07504503f, -0.06679418f, 0.17193584f, 0.00397043f, 0.09094197f, -0.33864528f, -0.20794003f, -0.27298170f, 0.17693785f, -0.13864864f, 0.17138359f, -0.15167731f, 0.01611392f, -0.09466688f, 0.17901701f},
  {0.20241041f, 0.11171401f, 0.23638755f, 0.53065819f, 0.23968612f, 0.31511167f, -0.07629991f, 0.24139643f, -0.09420802f, -0.44956270f, 0.20546027f, 0.05242859f, 0.17386857f, 0.31100571f, 0.42380545f, 0.22766660f, -0.35958907f, 0.12479211f, 0.10888261f, -0.07516362f, -0.08504192f, -0.00498063f, -0.00128834f, -0.22499262f, -0.12974130f, 0.10141612f, -0.14525852f, -0.08536874f, 0.18435888f, 0.00416705f, 0.13018450f, -0.22702336f},
  {0.13807140f, 0.09178173f, 0.07076038f, 0.09862643f, 0.22127709f, 0.01914059f, 0.08190839f, 0.28151694f, 0.19084413f, 0.00168297f, 0.09484432f, -0.01359620f, -0.14778900f, 0.02419423f, 0.23771961f, 0.18846312f, -0.09712724f, 0.04120064f, -0.08602864f, 0.22368063f, 0.21653859f, 0.11014035f, 0.19209594f, 0.12163235f, 0.08656482f, -0.25148603f, -0.03693991f, 0.05429074f, 0.13012637f, -0.02022616f, 0.25603920f, -0.17747182f},
  {0.00328817f, 0.05924152f, 0.13484313f, 0.10901408f, -0.09797914f, -0.22346801f, 0.02621633f, 0.04377735f, -0.15221727f, 0.21849597f, 0.09002014f, 0.08891713f, 0.19279799f, -0.19454229f, -0.25122461f, 0.12731856f, 0.12558290f, 0.12660189f, 0.14906467f, 0.17500030f, 0.25533044f, 0.01907388f, 0.07160433f, 0.01220156f, -0.14976598f, 0.00595762f, -0.12376380f, 0.22885853f, 0.01529558f, 0.07967141f, -0.10189705f, -0.16609146f},
  {-0.24060698f, 0.04121638f, -0.16144122f, 0.12832595f, 0.24160975f, 0.17643179f, 0.16460311f, -0.08170373f, 0.25398409f, 0.14025211f, -0.15643799f, 0.19888131f, -0.11285879f, 0.14148848f, 0.28532496f, -0.25552401f, 0.19135676f, 0.14756726f, 0.33767641f, -0.04340903f, 0.15549222f, -0.14021119f, -0.05782993f, -0.22826660f, 0.27849957f, 0.12677924f, 0.16418041f, 0.18422958f, -0.12686455f, -0.01009779f, -0.17683341f, -0.15972693f},
  {-0.13863556f, 0.04473562f, -0.01988185f, -0.11149813f, -0.08014696f, -0.16041520f, 0.28199586f, 0.20272689f, 0.27469420f, 0.01134659f, -0.08028045f, 0.21082449f, -0.10179492f, -0.08524922f, -0.02811591f, -0.21127875f, -0.11399780f, 0.02428242f, 0.20797728f, -0.18337953f, -0.11248349f, 0.24425454f, -0.16087361f, 0.00518180f, 0.20021212f, -0.17243938f, -0.22209582f, -0.06591306f, -0.04950010f, 0.04745397f, 0.12160966f, -0.18501237f},
  {-0.00347783f, -0.01750185f, -0.13784239f, 0.04681516f, -0.06547962f, -0.08628557f, -0.24439287f, 0.00055601f, -0.14068200f, 0.28140330f, -0.10411151f, -0.06715530f, -0.07714049f, 0.05060839f, 0.00026957f, 0.06519883f, 0.23708284f, 0.18080196f, -0.19525765f, -0.02326218f, 0.12601395f, 0.20945431f, 0.29472578f, -0.01139176f, -0.07582575f, -0.02234708f, 0.10922463f, -0.04911033f, -0.05260269f, 0.25759777f, -0.08312096f, 0.15432565f},
  {-0.06252619f, -0.03452630f, 0.01080115f, 0.22270708f, -0.13549113f, -0.16408427f, 0.26487583f, -0.08845457f, 0.09701002f, 0.02505057f, -0.02021960f, 0.12898622f, -0.21375768f, 0.02426773f, -0.02322494f, 0.05548231f, -0.19343665f, 0.10869116f, -0.04394278f, -0.13782805f, -0.17702143f, -0.11956891f, 0.18839870f, -0.00739496f, 0.25313717f, 0.21950722f, 0.02196128f, -0.20324844f, -0.01861254f, 0.18390438f, -0.03176016f, -0.21934347f},
  {0.04929526f, 0.36971268f, 0.19745171f, 0.09337109f, 0.15444982f, 0.03001270f, -0.04716732f, 0.38574275f, -0.03567968f, -0.35635856f, -0.28564364f, 0.33733904f, 0.24632646f, 0.24243622f, 0.35106817f, -0.19514790f, -0.22818436f, 0.23876180f, -0.05010907f, 0.09015557f, 0.36059967f, -0.13760206f, -0.25922680f, -0.22822723f, -0.18841726f, 0.20656690f, -0.02658282f, 0.06238314f, 0.19603541f, -0.25557601f, -0.01126244f, -0.05336656f},
  {0.01803447f, 0.30390623f, 0.19417131f, 0.02799602f, 0.22259459f, -0.18964514f, -0.16001417f, -0.08301272f, 0.01296383f, 0.03249843f, 0.03333607f, 0.27288187f, -0.00614468f, -0.01242779f, -0.18778805f, -0.25781953f, -0.01480635f, 0.03339348f, 0.28818524f, -0.20508358f, -0.28116983f, 0.04523575f, -0.09179702f, -0.17184369f, 0.16920331f, -0.21235280f, 0.03746004f, -0.17472284f, -0.09443961f, -0.00918465f, 0.19030473f, -0.07102877f},
  {0.10048716f, -0.17954981f, 0.21171717f, -0.09990592f, 0.17119382f, -0.03152630f, 0.25101107f, -0.00431744f, -0.18034801f, -0.14251347f, 0.25086999f, 0.04980794f, 0.09341359f, -0.17788112f, -0.10279931f, -0.25981000f, 0.31324476f, 0.12249272f, 0.28958452f, -0.15966825f, 0.01615649f, 0.16320261f, -0.00515104f, 0.06297158f, 0.29731059f, 0.16864859f, 0.10493042f, -0.17804576f, -0.05136920f, 0.31109065f, -0.21429938f, 0.08607391f},
  {0.06792933f, 0.07083659f, 0.29314435f, -0.07155163f, -0.05551280f, -0.25922871f, -0.05401042f, -0.11641693f, -0.09974205f, 0.27104211f, 0.32356852f, -0.17017098f, -0.09592471f, 0.18056642f, -0.20525517f, -0.21785468f, -0.09659182f, 0.06455951f, -0.17144498f, 0.24092053f, -0.03902431f, 0.05623676f, -0.05804354f, 0.04255382f, 0.11912961f, 0.13453436f, 0.11433470f, -0.00756244f, 0.14569925f, 0.20979846f, 0.07669383f, -0.20654273f},
  {-0.26819918f, -0.06794536f, 0.16684328f, 0.08085185f, 0.03434579f, 0.13186938f, 0.27835697f, 0.30159009f, 0.01840639f, 0.02289458f, -0.16275884f, -0.06087680f, -0.24435835f, -0.10105257f, 0.00054242f, 0.13585082f, -0.20223756f, 0.21863915f, 0.18383369f, -0.19501981f, -0.06589639f, 0.00522798f, 0.11445465f, -0.08564516f, -0.08080826f, -0.22671798f, 0.01143302f, 0.11774994f, 0.00576861f, 0.19098702f, 0.14002465f, 0.19358204f},
  {0.09389751f, 0.08630881f, 0.13448809f, 0.27093151f, 0.00385882f, -0.09884601f, -0.27411097f, 0.22431821f, 0.19713435f, -0.11523800f, 0.11609136f, 0.04455861f, -0.25525072f, 0.24673912f, -0.12656412f, -0.23269224f, 0.08208746f, 0.18308088f, -0.19980344f, 0.08786406f, 0.03294568f, -0.15502165f, -0.13091700f, 0.04896069f, -0.08641690f, 0.20234802f, 0.14360659f, 0.30183488f, -0.07935210f, 0.24993345f, -0.04056260f, -0.07272448f},
  {-0.31127599f, -0.15604380f, 0.11410244f, 0.04938725f, -0.10268737f, 0.07127810f, -0.19373432f, 0.09484451f, -0.04913829f, 0.23936093f, 0.23856586f, 0.04260421f, -0.12206300f, -0.03308631f, 0.18973045f, -0.10062247f, -0.14078984f, -0.13642813f, -0.00397534f, 0.04387769f, 0.21645974f, -0.11384452f, -0.05570595f, 0.05752948f, 0.14162393f, 0.02044379f, -0.03481243f, -0.01033634f, 0.22298490f, -0.20470579f, 0.17951171f, 0.00000017f},
  {0.15013024f, -0.04911497f, 0.05967510f, 0.27824727f, -0.05089417f, 0.23746109f, 0.29815188f, 0.23041996f, 0.17706531f, -0.41302925f, -0.11368404f, -0.03145056f, 0.18170244f, 0.39048246f, 0.33016458f, -0.23596109f, -0.25845054f, 0.37301481f, 0.09659938f, 0.31972998f, 0.26886177f, 0.15692867f, -0.21368685f, -0.24233471f, -0.25235739f, -0.07808546f, -0.05279777f, 0.21965472f, 0.15091802f, -0.31716970f, -0.10209627f, -0.16708472f},
  {-0.18707354f, 0.22560351f, -0.22712845f, 0.03974719f, -0.11030323f, 0.17958145f, 0.01096931f, -0.08025152f, -0.00168366f, 0.18238008f, 0.31752792f, -0.09645157f, 0.19435923f, 0.22586124f, 0.26253501f, 0.04255715f, 0.09763931f, 0.01193432f, 0.12449453f, 0.07224058f, 0.13196492f, 0.02202281f, 0.13556159f, 0.05168725f, -0.18400943f, 0.17919549f, 0.00802917f, 0.15978372f, -0.02539576f, -0.05932278f, 0.13577034f, -0.13145639f},
  {0.23407434f, -0.01238501f, 0.03058069f, -0.06467182f, 0.05859755f, -0.07573776f, -0.19234039f, -0.09088676f, -0.19272628f, 0.27980113f, 0.24753593f, -0.01417801f, 0.16788402f, -0.05472340f, 0.12720625f, 0.12932460f, 0.21033406f, -0.05461858f, 0.15058433f, -0.11655595f, 0.24692246f, -0.19653456f, 0.08823932f, 0.12727298f, 0.11983001f, -0.23304623f, 0.20586909f, -0.19357836f, 0.09501043f, -0.11127936f, -0.08834967f, 0.01098390f},
  {-0.05057128f, -0.10093898f, -0.12603480f, 0.04974130f, 0.16962096f, 0.26292199f, -0.17065191f, -0.00195068f, -0.12657942f, -0.22151084f, 0.09601089f, 0.11376750f, -0.11148176f, -0.06285612f, -0.13161278f, 0.14676462f, 0.15463321f, -0.09437937f, -0.08999232f, 0.23503308f, 0.26496479f, 0.00943541f, -0.26256803f, -0.06282758f, 0.01810287f, -0.04327211f, -0.24896288f, 0.13447681f, -0.20961183f, 0.11084595f, -0.11383312f, -0.23875824f},
  {0.16775255f, 0.10689131f, 0.30140445f, 0.28296763f, -0.00594302f, 0.25957975f, -0.07345799f, 0.41033340f, 0.00229758f, -0.14182894f, -0.24510838f, 0.12081366f, 0.30386695f, 0.31386679f, 0.07470590f, -0.16651842f, -0.00276826f, 0.53191924f, -0.12531763f, 0.10150997f, 0.03159617f, 0.26271433f, -0.36786836f, -0.28288373f, 0.01586192f, -0.21931732f, -0.02017018f, 0.13260880f, 0.00594879f, -0.20059954f, -0.09322245f, -0.16297044f},
  {0.01343831f, 0.21088213f, 0.18795851f, -0.04933166f, -0.11728844f, -0.13684833f, 0.02567759f, 0.02155283f, 0.15786333f, -0.25717103f, -0.24155983f, 0.02706871f, -0.09157809f, -0.16190219f, 0.11512398f, -0.14467208f, 0.20192160f, 0.25690615f, -0.00904086f, -0.17645004f, -0.06589335f, -0.07254080f, 0.14349794f, 0.15305586f, 0.14504124f, 0.12725867f, -0.06731246f, -0.23057310f, 0.18523444f, -0.01325715f, 0.13222627f, -0.12225773f},
  {-0.20856868f, 0.36433172f, -0.04748773f, 0.44030976f, 0.33026689f, 0.22914313f, 0.12091628f, 0.17445053f, 0.24791689f, -0.12021951f, 0.02001788f, 0.18489845f, -0.00934501f, 0.04940476f, 0.07493909f, 0.00970027f, 0.09440484f, 0.05065598f, 0.32804191f, 0.19219181f, 0.26765540f, 0.13645115f, 0.07168888f, -0.13419436f, 0.11505985f, -0.17690252f, 0.17908734f, 0.37302661f, -0.01691743f, -0.21663909f, 0.06435147f, -0.13048871f},
  {0.19282913f, -0.22682011f, -0.21372996f, 0.24792640f, 0.12493609f, 0.09680063f, -0.10024267f, 0.10235196f, 0.05161164f, 0.16354968f, 0.18855424f, 0.03646436f, -0.03504222f, -0.16435602f, 0.10889513f, -0.16366142f, 0.18789430f, -0.13430692f, -0.03101409f, 0.10518259f, -0.15308262f, -0.24384218f, -0.09373150f, 0.02865479f, 0.23360905f, -0.27383733f, 0.00004892f, -0.14860743f, -0.00589773f, 0.28377020f, -0.10516102f, -0.02738520f},
  {-0.23050892f, -0.24970458f, -0.10810920f, -0.19880058f, 0.06915434f, -0.08509054f, -0.02209772f, -0.18943042f, -0.15153949f, 0.19172643f, 0.34440956f, -0.24963862f, 0.21373504f, 0.00438833f, 0.03767187f, -0.02317220f, -0.14376375f, -0.19593804f, -0.05306034f, -0.05406586f, 0.24349606f, -0.11838509f, -0.10419777f, 0.15544026f, -0.07703622f, -0.00980178f, 0.00149311f, 0.17119694f, 0.07542039f, 0.12812053f, 0.03574416f, 0.18747061f},
  {-0.13619244f, -0.21086264f, -0.03316991f, -0.05049063f, 0.14657433f, 0.05918187f, 0.11571075f, -0.17795104f, 0.19188830f, -0.05413742f, 0.09654287f, 0.09292462f, -0.06975353f, -0.18405439f, -0.14904551f, 0.13208783f, 0.19907500f, 0.12639150f, -0.11636807f, -0.07624318f, 0.08602140f, 0.20293821f, -0.09562634f, -0.00972469f, 0.18109220f, -0.10446564f, -0.13977742f, -0.30157000f, 0.09071280f, 0.25171253f, 0.28331953f, 0.01677679f},
  {-0.00749667f, -0.14874382f, 0.07488505f, 0.04143691f, 0.11769509f, -0.08879428f, -0.07273725f, -0.12358368f, 0.00582628f, -0.25662342f, -0.19037084f, 0.31387508f, -0.10237084f, -0.00034201f, 0.21151876f, 0.22290288f, 0.02917026f, 0.23316360f, 0.10185783f, -0.17407477f, -0.09711581f, 0.15212788f, 0.13656470f, -0.00082611f, -0.12605554f, 0.04871703f, -0.19838786f, 0.01752316f, 0.15396665f, 0.14982387f, 0.17109650f, 0.16709118f},
  {0.11836334f, 0.26591665f, 0.09145326f, 0.05534387f, -0.17667931f, 0.02679541f, 0.02438409f, 0.19881755f, 0.23891619f, -0.31626216f, -0.20212373f, 0.35021770f, -0.06700445f, 0.12901843f, 0.21047214f, -0.00136461f, -0.34903333f, 0.07223461f, -0.10295721f, 0.14876993f, 0.12080400f, -0.04266398f, -0.05956509f, -0.14869238f, -0.32537863f, 0.01397340f, 0.08093551f, -0.06617604f, -0.03364301f, -0.05523543f, 0.14837423f, 0.13653834f},
  {-0.01250794f, 0.11927851f, 0.01279664f, 0.06569053f, 0.02250894f, -0.19985563f, 0.16710877f, 0.04893684f, 0.01817299f, 0.26426950f, -0.24857584f, -0.06435444f, -0.25317478f, 0.08397692f, 0.11919445f, -0.10457053f, 0.09096757f, -0.04276420f, 0.22533245f, -0.05236872f, -0.09938912f, 0.30741328f, -0.05354729f, 0.02369077f, 0.11309967f, 0.21389997f, -0.08078676f, -0.29080600f, -0.03883633f, 0.09528322f, -0.13722898f, 0.06512629f},
  {0.25020227f, 0.03423331f, -0.05263883f, 0.03961564f, -0.17615993f, 0.25632983f, -0.03505984f, -0.02039352f, 0.13264050f, -0.05543682f, 0.09762999f, -0.17424473f, 0.23298804f, 0.28132060f, 0.19855693f, 0.20998457f, -0.29335576f, 0.06080625f, 0.08373128f, 0.08277059f, 0.03706597f, -0.04148262f, -0.25176179f, -0.05266337f, -0.19871825f, 0.10316655f, -0.16172339f, -0.18796371f, 0.04316217f, 0.00350707f, 0.17391478f, 0.02450509f},
  {-0.09918010f, 0.22505130f, 0.05092196f, -0.06262589f, 0.07861450f, 0.25909290f, -0.02429251f, 0.00900777f, -0.13248411f, -0.19418086f, -0.04403700f, 0.10488229f, -0.12078432f, 0.27224985f, 0.28919232f, 0.02179154f, 0.03006752f, -0.02769254f, 0.04662422f, 0.16058090f, 0.26615840f, 0.16880578f, -0.15782727f, 0.07651486f, -0.18272321f, 0.18680365f, 0.22315462f, -0.01476459f, 0.13661556f, -0.23332801f, -0.03284485f, -0.00296251f},
  {0.00270167f, 0.24288030f, 0.14148819f, 0.02185157f, 0.20041187f, 0.17995842f, -0.17707409f, 0.27272069f, -0.13354647f, 0.19232135f, -0.11277519f, -0.14607468f, -0.05148577f, 0.02445584f, -0.04917298f, -0.24676110f, 0.04136544f, 0.21461411f, -0.00010691f, -0.17060828f, -0.05411112f, -0.17686157f, 0.22234815f, 0.18599243f, 0.09709067f, -0.10503401f, 0.13385545f, -0.00939745f, 0.20711426f, 0.12714110f, 0.18427180f, 0.02976908f},
  {-0.13485467f, 0.14720021f, 0.09007960f, -0.03707542f, -0.12946828f, -0.07082611f, 0.03124561f, -0.23464109f, -0.24563532f, 0.20404744f, 0.22117887f, -0.05705155f, -0.24274166f, -0.05706331f, -0.30404755f, -0.04379374f, 0.00769496f, -0.28883752f, -0.17298813f, -0.14913888f, -0.35346356f, -0.04749981f, 0.18662506f, 0.08823176f, 0.08333962f, 0.14393462f, -0.18548293f, -0.13768573f, -0.24156965f, -0.04687028f, 0.11149962f, 0.01697819f},
  {0.17764898f, 0.00019693f, 0.30730832f, -0.22988760f, -0.13663170f, -0.30386060f, -0.12443585f, 0.05322131f, 0.09677862f, -0.11356866f, 0.27663556f, 0.18783645f, -0.13452408f, -0.27327099f, -0.17533916f, -0.20872957f, -0.08895139f, 0.00158301f, -0.07376381f, -0.11923178f, 0.19737008f, 0.15374921f, 0.32848465f, -0.13323200f, 0.02344115f, -0.00438783f, -0.22059056f, -0.34927258f, 0.10572457f, 0.16444679f, -0.01574202f, -0.01590132f}
};

const float b2[H2_SIZE] = {
  -0.02883914f, -0.15066220f, -0.01204967f, -0.02028156f, -0.11118021f, 0.25056529f, 0.10077026f, 0.23721057f, -0.02890065f, -0.02737146f, -0.08322875f, -0.09376964f, -0.13494882f, 0.18715605f, 0.18492387f, -0.00555586f, -0.02242160f, 0.32859451f, -0.10619219f, -0.04835005f, -0.00823422f, 0.23210436f, 0.23808102f, -0.13658224f, 0.17834599f, 0.15079947f, -0.15409899f, -0.03638295f, 0.02944929f, 0.22376423f, -0.20274740f, 0.12834683f
};

const float W3[H2_SIZE][OUTPUT_SIZE] = {
  {-0.24262111f, 0.27196410f, -0.06371432f},
  {-0.09805650f, 0.33553502f, 0.30939478f},
  {0.28399727f, -0.45372871f, 0.21643598f},
  {-0.60066313f, 0.12775084f, 0.16843317f},
  {-0.23280375f, 0.02461826f, 0.46935940f},
  {-0.43804848f, 0.23522612f, -0.08036835f},
  {-0.31405839f, -0.38785467f, 0.48240656f},
  {0.10354116f, 0.46793973f, 0.47312912f},
  {-0.31214991f, -0.29331478f, 0.28545171f},
  {0.11405229f, -0.16003408f, -0.23138934f},
  {0.17161660f, 0.00941769f, -0.37392226f},
  {-0.15783828f, 0.03789433f, 0.12895447f},
  {-0.38609555f, 0.35333586f, -0.48386237f},
  {-0.29415867f, 0.29385126f, 0.09170547f},
  {-0.44628531f, 0.33006567f, 0.09185851f},
  {0.21822503f, 0.17869198f, 0.11145693f},
  {0.08081988f, -0.37534091f, -0.22226715f},
  {-0.39766166f, 0.23869641f, 0.17279965f},
  {-0.25124329f, -0.61506301f, 0.16468823f},
  {-0.15830769f, 0.24707529f, -0.48944885f},
  {0.03056174f, 0.44310522f, -0.36617655f},
  {-0.06714343f, -0.49105829f, 0.20127030f},
  {0.13008094f, -0.14311586f, -0.02106157f},
  {0.44401771f, -0.37854448f, -0.38019532f},
  {0.34100080f, -0.00457570f, 0.35741019f},
  {0.01862597f, 0.25574312f, -0.03864410f},
  {0.19036683f, 0.32748920f, 0.07476530f},
  {-0.42871958f, -0.04633527f, -0.27226987f},
  {-0.22367668f, -0.25569323f, 0.09958281f},
  {0.16979772f, -0.15137473f, 0.09570695f},
  {-0.31225708f, -0.35642329f, -0.29301012f},
  {-0.00745815f, -0.25754583f, -0.15713133f}
};

const float b3[OUTPUT_SIZE] = {
  -0.08427064f, 0.26267862f, -0.39420891f
};

