#pragma once

// Modelo MLP Q1 exportado desde scikit-learn para ESP32

#define INPUT_SIZE 36
#define H1_SIZE 64
#define H2_SIZE 32
#define OUTPUT_SIZE 3

const float scaler_mean[INPUT_SIZE] = {
  -0.15533860f, 0.81384903f, -1.44021535f, 1.15581644f, 1.76516807f, 2.59603167f, 0.21835922f, 0.57286167f, -0.69725996f, 1.15153670f, 1.24389362f, 1.84879661f, 12.22041512f, 0.29221776f, 11.66057587f, 12.75270271f, 12.23289013f, 1.09212756f, 0.13781428f, 11.38120651f, -18.46631813f, 18.22002792f, 13.73437309f, 36.68634415f, 0.52618438f, 17.97921562f, -29.87981987f, 31.67441940f, 20.80658531f, 61.55423737f, -1.27800953f, 3.36680484f, -7.67498493f, 5.00362873f, 5.08007383f, 12.67861366f
};

const float scaler_scale[INPUT_SIZE] = {
  2.03194356f, 1.26885450f, 2.30763483f, 3.06058335f, 1.81918895f, 3.84484458f, 1.70820653f, 0.96867728f, 2.05180550f, 2.28670597f, 1.63856184f, 2.92998385f, 0.83606976f, 0.42778978f, 1.44807923f, 0.61729312f, 0.81383979f, 1.42644680f, 12.86986923f, 20.69766426f, 34.02685928f, 32.56705856f, 23.12887192f, 62.70463562f, 15.93651390f, 31.18184471f, 51.37692642f, 54.73192596f, 33.41997910f, 101.57856750f, 7.12638903f, 5.59982681f, 13.58849525f, 11.69310284f, 8.32496357f, 20.17936707f
};

const float W1[INPUT_SIZE][H1_SIZE] = {
  {0.03096879f, 0.08808875f, 0.18998097f, 0.07302490f, -0.22121516f, -0.07084689f, -0.36193395f, 0.25523773f, 0.29720679f, -0.00124797f, -0.32177284f, 0.32710275f, 1.15100384f, -0.99127817f, -0.14575826f, -0.34187007f, -0.15344957f, 0.02834537f, -0.00379638f, 0.01370997f, 0.18741229f, -0.20771594f, 0.33459619f, -0.06034243f, 0.04439952f, 0.26358590f, 0.41439226f, -0.07557790f, 0.09989697f, -0.22909595f, 0.00173473f, -0.19327451f, -1.13633931f, 0.29633871f, 0.15809901f, 1.05058277f, -0.14771184f, -0.30290946f, 0.21201615f, -0.60168523f, -0.14832795f, -0.10187189f, -0.27786356f, 0.46205640f, -0.23611729f, -0.01755116f, 0.07803309f, 0.03054143f, 0.00429175f, -0.19335443f, 0.91653204f, 0.03771361f, 0.36849216f, 0.20365921f, -0.01865572f, 0.08564844f, -0.28812787f, -0.15923853f, -0.32388395f, -0.35666943f, -0.17529811f, -0.13813305f, -0.17239571f, -0.17016844f},
  {0.01232857f, -0.05599260f, -0.10536253f, 0.19490305f, -0.15049592f, 0.31930092f, 0.04595356f, 0.02431584f, -0.21445924f, 0.17909075f, 0.11930763f, 0.35027671f, 0.16900003f, -0.23580281f, -0.20327848f, -0.19225293f, 0.15506455f, 0.03285151f, -0.05270328f, -0.00992566f, 0.03253122f, -0.11006218f, 0.23967992f, 0.10739772f, 0.10010763f, 0.01980115f, -0.11333935f, 0.04084783f, 0.09185614f, -0.01346415f, 0.11722467f, 0.00398499f, 0.05122062f, -0.01018922f, -0.34373537f, -0.14993863f, -0.20404372f, -0.08887898f, -0.05492288f, 0.00501290f, 0.18557894f, -0.09333224f, -0.15693183f, 0.33192435f, -0.16567330f, -0.33820176f, -0.01539095f, -0.21236727f, 0.14545368f, 0.07639106f, 0.16696452f, 0.29707712f, 0.24887963f, -0.21594289f, 0.05928018f, -0.05370390f, 0.11702961f, 0.25428328f, -0.11165636f, -0.20789202f, -0.16028523f, -0.01974655f, 0.17234269f, 0.11571532f},
  {-0.30778328f, 0.00636879f, -0.05329708f, -0.16152257f, -0.30230376f, -0.10074071f, 0.24946153f, -0.09442239f, 0.03607078f, 0.01029358f, -0.11178805f, 0.25281069f, 0.44419408f, -0.46712580f, 0.08865806f, -0.21222781f, -0.22131845f, -0.21878468f, 0.02209354f, 0.02949652f, -0.22832945f, -0.10753842f, 0.31150138f, -0.17969123f, -0.08569922f, 0.01415529f, 0.31027368f, -0.06803215f, 0.15482429f, 0.20600848f, -0.11674919f, 0.01494031f, -0.44552371f, 0.09439253f, 0.09917503f, 0.17163049f, -0.26115185f, 0.30262163f, -0.03697372f, -0.41689545f, -0.22056571f, -0.00869600f, 0.16592886f, -0.21023007f, -0.04536333f, -0.02137443f, 0.02480228f, -0.14254874f, 0.14322181f, 0.00709267f, 0.38989028f, -0.41435862f, -0.13110110f, -0.07161246f, 0.23828083f, 0.22235835f, -0.13573213f, 0.02862792f, -0.00391240f, -0.16588081f, -0.01053924f, -0.19325931f, -0.30595902f, 0.23732923f},
  {0.41187012f, -0.05315579f, 0.03931013f, -0.02333240f, 0.12174936f, 0.28562087f, 0.00924390f, 0.27317119f, 0.22891340f, -0.20138288f, -0.23063728f, 0.30228806f, 0.50269997f, -0.52592915f, -0.31395721f, -0.00428709f, -0.36988884f, -0.13638599f, 0.10647366f, 0.22547169f, 0.17495558f, -0.10456194f, 0.43263385f, -0.09728265f, -0.04956259f, 0.21963452f, 0.35847566f, 0.04262405f, 0.12523907f, -0.04023040f, -0.27569529f, -0.03260075f, -0.31959108f, -0.04981906f, 0.08061747f, 0.28518501f, 0.14931199f, -0.12338648f, 0.17421001f, -0.17747745f, 0.09128720f, -0.07864781f, -0.28500006f, 0.43967688f, -0.14001966f, -0.43666759f, 0.26074463f, -0.14430875f, 0.17902057f, 0.16539936f, 0.57143098f, -0.14497963f, -0.04918794f, 0.14072183f, -0.16681218f, 0.08426406f, 0.24156497f, 0.30448806f, -0.22487797f, -0.20658584f, 0.17368314f, -0.09265628f, -0.19234507f, -0.10020311f},
  {0.34894305f, 0.00397294f, 0.20896819f, -0.31868175f, 0.11890200f, 0.34001818f, -0.26427042f, 0.12861952f, 0.30446336f, 0.24796519f, 0.05628533f, 0.15982904f, -0.10586762f, 0.02551117f, 0.13470472f, 0.30309573f, 0.29123753f, 0.17494477f, 0.06963807f, 0.11341044f, 0.34565181f, -0.01950866f, 0.12325959f, 0.21004003f, 0.22262883f, -0.10465296f, -0.03994635f, -0.31462121f, 0.11938812f, -0.25564373f, -0.09023076f, 0.08711421f, 0.01739382f, 0.10196482f, -0.25689274f, -0.27467275f, 0.07585450f, -0.07558765f, -0.15366367f, 0.09645046f, 0.28097862f, -0.22833194f, -0.00772003f, -0.03284750f, -0.25649107f, -0.07841500f, 0.08989212f, 0.11283341f, 0.09704220f, 0.17329726f, 0.01350187f, 0.06550230f, 0.18431805f, -0.10342214f, -0.03264792f, -0.31217271f, -0.32419997f, 0.31564572f, 0.32513168f, 0.21386147f, -0.09656896f, -0.10024340f, -0.16214730f, -0.18810864f},
  {0.17995340f, 0.03170839f, 0.18002829f, -0.06180207f, 0.28320095f, 0.20873757f, -0.09211163f, 0.27337167f, 0.02255891f, -0.07950044f, -0.08301312f, 0.29461479f, -0.14978106f, -0.19165555f, -0.42559198f, -0.22769865f, 0.14604345f, 0.10215171f, 0.04852265f, -0.02670630f, 0.08849373f, -0.00737389f, -0.00184182f, 0.01073871f, -0.11076281f, 0.12363187f, 0.16891736f, -0.32032320f, -0.08749729f, -0.01794053f, -0.04648362f, 0.22163022f, 0.13504188f, -0.12629610f, -0.34721416f, 0.15570962f, -0.21697675f, -0.14862704f, 0.21759810f, 0.05324006f, 0.00822520f, 0.06279805f, -0.15506409f, 0.31171685f, 0.21160248f, -0.22573972f, 0.34828678f, 0.17968458f, -0.20467018f, -0.28825778f, -0.06180210f, -0.11136129f, -0.05728272f, -0.01700211f, -0.36993104f, -0.19441977f, 0.17859145f, -0.13816300f, 0.13592885f, -0.12116165f, -0.17931052f, 0.14375281f, 0.09377132f, 0.09223240f},
  {0.40631485f, 0.05876211f, -0.23858285f, -0.14285009f, 0.18550348f, 0.28800938f, 0.13479155f, 0.03288877f, -0.04217923f, 0.38553151f, -0.09207086f, 0.27537116f, 0.53914362f, -0.30702049f, 0.01877150f, 0.28982836f, -0.18770018f, 0.25544471f, 0.06207748f, 0.27692899f, -0.01418169f, 0.14199193f, -0.14651729f, -0.25524804f, 0.17669985f, -0.20746490f, -0.36918679f, 0.20146246f, 0.33407936f, -0.08953985f, 0.17229089f, 0.04213407f, -0.14180008f, -0.07148454f, 0.00610020f, 0.61844242f, 0.12350393f, 0.01650488f, -0.18662480f, 0.48960969f, -0.21290439f, 0.11905077f, -0.12427690f, 0.22105694f, -0.09277155f, -0.34200570f, -0.42213410f, 0.12955575f, 0.06986114f, -0.21643524f, -0.24949490f, 0.12667190f, -0.35646832f, 0.19464572f, 0.05161633f, -0.21335982f, -0.18000452f, 0.83430505f, -0.10896511f, -0.11319390f, 0.48059928f, 0.24880633f, 0.56291986f, 0.04726316f},
  {-0.11703580f, -0.23367967f, 0.14301676f, 0.09047912f, 0.01490208f, 0.38709962f, -0.23857212f, 0.23430420f, -0.31593832f, -0.00234039f, -0.21952476f, -0.09869128f, -0.21060202f, 0.13459462f, 0.05762206f, -0.00223284f, 0.29957533f, -0.12903012f, -0.12734587f, 0.44201827f, -0.02782306f, 0.21010722f, -0.26470616f, 0.26307577f, -0.32436800f, 0.15128279f, 0.02110318f, 0.20985091f, -0.31416568f, -0.00340644f, 0.22760098f, -0.00765024f, 0.03078517f, 0.13420436f, -0.10774442f, 0.08723111f, 0.12192850f, 0.07199841f, -0.15574366f, -0.11600106f, 0.29162318f, 0.20748004f, -0.08130863f, 0.17121312f, -0.15688224f, -0.19364661f, -0.04118863f, -0.13298219f, -0.07576372f, -0.23576026f, 0.26260430f, 0.45417258f, 0.15688002f, -0.06226289f, -0.18314654f, 0.13415173f, -0.01925865f, -0.19215745f, 0.33027935f, 0.14746833f, 0.23813307f, 0.11298228f, 0.03521607f, -0.06322929f},
  {0.42374915f, 0.16754360f, -0.34097481f, -0.27672374f, -0.07651675f, 0.18624823f, 0.26912072f, -0.19019030f, 0.11965729f, 0.03297934f, 0.25333995f, 0.18611100f, 0.31059858f, -0.29099983f, -0.12684938f, 0.04010459f, -0.26605436f, 0.23733164f, 0.18125682f, 0.22943665f, 0.22317694f, -0.03833649f, 0.11110556f, 0.17145200f, 0.22569169f, -0.11662973f, -0.23256469f, -0.10778409f, 0.42179570f, 0.06235473f, -0.02546733f, 0.08287054f, 0.02749572f, -0.10745414f, -0.11464572f, 0.26647830f, -0.07598777f, 0.18120460f, -0.05844093f, 0.41269332f, -0.01994711f, 0.10879665f, 0.19382313f, -0.06298662f, -0.20060453f, -0.27235669f, -0.04537177f, 0.07853243f, 0.21779616f, -0.14787897f, -0.28092641f, -0.35725161f, -0.26673123f, 0.17464586f, -0.01598065f, 0.02327438f, 0.31290510f, 0.15983196f, -0.13648114f, 0.10304292f, 0.04279501f, 0.07727706f, 0.34671411f, 0.23108001f},
  {-0.08488838f, 0.15015155f, -0.06310523f, -0.06032953f, 0.05620331f, 0.38691983f, -0.08609880f, 0.03196681f, 0.03732776f, 0.00221859f, -0.23656851f, -0.12022561f, -0.03012237f, -0.27003580f, -0.28799960f, 0.12877958f, -0.11691059f, -0.09254938f, 0.23183431f, 0.16000743f, 0.17218196f, -0.18757761f, -0.17430803f, -0.19327095f, -0.22153021f, -0.13026893f, -0.28023908f, -0.24572341f, -0.14833194f, -0.11161329f, -0.11714170f, -0.03285957f, -0.02671502f, 0.14039667f, -0.32286683f, 0.39666930f, 0.09531054f, -0.34647551f, 0.19732912f, 0.44607794f, -0.18138267f, -0.06225358f, 0.04907164f, 0.16828474f, -0.19256870f, -0.25523445f, -0.17053992f, -0.02715492f, 0.01879861f, -0.10039478f, 0.01351573f, 0.25183836f, -0.26658320f, -0.17922622f, 0.03607361f, 0.15328076f, -0.03983239f, 0.19587100f, -0.14999916f, -0.05810555f, 0.17125808f, -0.09347570f, -0.01342436f, -0.12516560f},
  {-0.20815887f, -0.16451101f, -0.04607240f, -0.09091085f, -0.13794197f, 0.31581274f, -0.07482266f, 0.23787211f, 0.23330458f, 0.14159444f, -0.32046476f, 0.15210700f, 0.06691486f, 0.25178167f, -0.06431703f, -0.14522870f, -0.06347431f, -0.07713042f, 0.11460313f, 0.16851594f, 0.03505104f, 0.26792026f, 0.01609911f, -0.10390365f, -0.19054189f, -0.19201709f, -0.05993290f, -0.32030836f, -0.20073462f, -0.22094837f, -0.26821893f, 0.32842568f, -0.21408127f, 0.02903932f, -0.13473877f, 0.35842335f, -0.27417842f, -0.21204036f, 0.26492569f, 0.29795998f, 0.22668555f, -0.29355052f, -0.22065786f, 0.17316550f, 0.29803208f, -0.05537842f, 0.06184944f, -0.03734249f, 0.04191254f, -0.14156148f, -0.07320561f, 0.08308478f, 0.10123631f, -0.24669895f, -0.22347157f, -0.09280562f, -0.19970725f, 0.09124500f, -0.02265518f, 0.09867534f, 0.07002780f, -0.23257153f, -0.05478286f, -0.28955206f},
  {-0.24976216f, 0.19693062f, -0.05322264f, 0.22489372f, -0.05502085f, 0.29394409f, 0.05001270f, 0.31991693f, -0.07152652f, -0.00711866f, -0.10693015f, 0.28152955f, 0.18196286f, 0.30958256f, -0.26522413f, 0.06976358f, 0.29139417f, -0.19776303f, -0.20703471f, 0.39319366f, 0.12964530f, 0.17534558f, -0.18520471f, 0.18245748f, -0.23289488f, -0.19424242f, -0.13755186f, 0.09044761f, -0.03142798f, -0.04823408f, -0.09980282f, 0.20128210f, -0.05903792f, 0.20577712f, -0.14051482f, 0.00471509f, 0.05702975f, -0.24734659f, 0.16975409f, 0.00913224f, -0.03218960f, 0.18748456f, -0.13471763f, 0.14926726f, 0.17477795f, -0.01163505f, -0.18233307f, 0.17593914f, -0.04826606f, -0.10497299f, -0.10912912f, 0.39647061f, 0.15246762f, -0.09925717f, 0.08186736f, 0.09026609f, -0.26713371f, -0.09005430f, 0.01371406f, 0.11430901f, -0.17503443f, 0.05694922f, 0.11330292f, 0.12855528f},
  {-0.04971285f, 0.14309689f, -0.19918561f, 0.28127140f, -0.17974377f, -0.04839370f, 0.13432249f, -0.17292145f, -0.11916376f, 0.10215854f, 0.07440839f, 0.01708288f, 0.18549895f, 0.09388417f, -0.13235709f, -0.08338168f, -0.07187375f, 0.32134336f, 0.07650147f, -0.03347079f, -0.07418259f, 0.30270082f, -0.10094610f, 0.02234874f, 0.02146383f, 0.15763110f, -0.22558385f, 0.13818944f, 0.15354136f, -0.05390420f, 0.07364266f, 0.26385984f, 0.17647068f, -0.15474308f, -0.01334938f, 0.11243006f, -0.01392637f, 0.01035165f, 0.23208414f, 0.23125130f, -0.01634488f, -0.16255806f, 0.20837250f, 0.15772110f, -0.10875882f, 0.16548619f, 0.23279691f, 0.05138806f, 0.05199642f, -0.03291850f, -0.14793952f, -0.01204355f, 0.25648683f, -0.31575659f, -0.16020539f, -0.05473813f, 0.16557278f, 0.27061379f, -0.10206138f, -0.09268839f, 0.23659405f, -0.01330658f, -0.05335182f, -0.06694412f},
  {-0.21369609f, -0.12200106f, 0.08120777f, -0.17758769f, 0.26671356f, -0.06253573f, 0.07241965f, 0.01420811f, -0.29522043f, 0.06072384f, -0.13245603f, 0.26284939f, -0.23945369f, -0.13882887f, -0.16499540f, 0.18942802f, -0.10817946f, -0.06876975f, -0.25537673f, 0.08373453f, -0.12492920f, 0.10282250f, -0.15424180f, -0.11918172f, -0.19376743f, 0.08906834f, -0.00956166f, -0.14794745f, 0.17837037f, 0.05667193f, 0.03446301f, -0.11250997f, -0.13526790f, 0.05885423f, -0.11696924f, -0.19229470f, 0.13516556f, 0.29278156f, -0.00811653f, -0.16020200f, 0.07779948f, -0.00616925f, -0.17107531f, -0.22815444f, -0.00381522f, 0.12755713f, -0.30113909f, -0.23715821f, -0.09068963f, 0.10599662f, -0.27116555f, -0.27049279f, 0.04505824f, -0.14056072f, 0.16811357f, -0.09782606f, -0.34658071f, -0.19886075f, 0.09848736f, 0.14480172f, 0.04738406f, -0.01497612f, -0.04061116f, -0.08321613f},
  {-0.09155821f, 0.16951181f, -0.31875482f, -0.08269726f, -0.19059409f, -0.23463675f, -0.15093085f, 0.05618857f, -0.03772033f, 0.17014655f, 0.14468779f, -0.13446751f, -0.08041744f, 0.01873961f, 0.04005718f, -0.08906892f, 0.16050944f, 0.04850826f, 0.04148354f, 0.02491439f, -0.16318575f, 0.28930640f, 0.14357246f, -0.20178819f, 0.16361541f, 0.00579250f, 0.18270612f, 0.11877439f, -0.07469754f, -0.29501262f, -0.11046489f, 0.05537076f, 0.13307416f, -0.14284301f, -0.20104343f, 0.18116932f, 0.26320231f, -0.05207007f, -0.16142419f, -0.08649466f, -0.26471347f, 0.21060713f, -0.20892705f, 0.00676541f, -0.03385650f, 0.00729809f, 0.10421363f, 0.20689976f, -0.16153041f, -0.23359936f, -0.14442430f, 0.29329714f, 0.25983599f, 0.02830483f, -0.01854658f, 0.09065774f, -0.04242016f, 0.24348111f, -0.08046767f, -0.06281630f, 0.11161245f, -0.25034454f, -0.07354770f, 0.08834697f},
  {-0.09292967f, 0.06346002f, -0.03986455f, -0.12311060f, 0.04799787f, -0.03491236f, 0.12201224f, -0.08623166f, 0.13578604f, 0.06256285f, -0.00747849f, 0.16407530f, 0.25036910f, -0.07304436f, -0.21367261f, -0.20953570f, 0.05580130f, -0.13985719f, 0.07705842f, 0.04171492f, -0.07336673f, 0.11600382f, -0.03457088f, -0.16424222f, 0.22588831f, 0.29693794f, 0.01473369f, -0.06979121f, -0.08991487f, 0.08013728f, 0.08173120f, 0.15644617f, -0.05682330f, 0.15655017f, -0.05134386f, -0.04562902f, 0.12081419f, -0.20848255f, 0.30670407f, 0.03495267f, -0.10649908f, 0.09749324f, 0.27478430f, 0.11255322f, 0.12915546f, 0.06726069f, 0.08987208f, 0.19494116f, 0.02292614f, 0.05090445f, 0.03762647f, 0.32914960f, 0.25101599f, -0.45174319f, 0.13110369f, 0.21090037f, -0.06656089f, 0.00589216f, 0.21907461f, -0.27156976f, 0.10587172f, -0.01508768f, 0.04461787f, 0.24399830f},
  {0.24274337f, -0.02385271f, 0.15919223f, 0.27941179f, -0.08618441f, 0.15936242f, -0.23521686f, 0.04271367f, -0.12170820f, -0.19375733f, -0.23768847f, 0.04342471f, 0.01028699f, 0.18027137f, -0.22263825f, -0.10057344f, 0.10130908f, 0.26229906f, -0.05499709f, 0.07290890f, 0.13108395f, 0.14012189f, -0.06191345f, -0.24948087f, 0.19848008f, -0.12905216f, 0.19213635f, -0.02686974f, 0.15635540f, 0.06221689f, 0.22272006f, -0.01876167f, 0.20399037f, -0.03733014f, -0.05917067f, 0.12078527f, 0.20688362f, 0.13239236f, 0.15311633f, -0.01910519f, -0.03058096f, 0.14475137f, -0.15380238f, -0.19976433f, 0.00087737f, -0.14227556f, -0.05040243f, -0.09087947f, -0.21503682f, -0.21807146f, 0.30753621f, 0.02996617f, 0.04936891f, 0.01431079f, -0.21493377f, 0.21762431f, 0.28651756f, -0.13823022f, -0.06887019f, 0.16545190f, 0.33667248f, -0.00455613f, 0.13486855f, -0.20429511f},
  {0.25121307f, -0.09837121f, 0.34694812f, -0.09248855f, 0.13745366f, 0.02528384f, -0.13248964f, -0.18534929f, -0.12582499f, -0.13281666f, 0.11236987f, -0.04906296f, -0.22883746f, 0.15303040f, 0.20235781f, 0.15114142f, 0.14664343f, -0.23614834f, -0.04568274f, 0.07011487f, 0.10717446f, -0.25444874f, 0.19790760f, -0.10162817f, -0.03703045f, 0.30188993f, 0.03059196f, 0.06295642f, -0.13378794f, 0.23882836f, -0.14193304f, -0.21347038f, 0.12378958f, 0.28756765f, 0.21537296f, 0.16392221f, -0.00018316f, 0.07478645f, -0.15211505f, -0.07479367f, -0.00986179f, -0.09641813f, 0.17215522f, 0.00405809f, -0.29368275f, -0.11358320f, 0.05143599f, -0.26798004f, 0.25508535f, 0.03217280f, -0.00703297f, 0.03166433f, 0.07792163f, -0.11673922f, 0.17580797f, 0.02463095f, -0.21453878f, 0.12642293f, 0.16326992f, 0.06456635f, 0.05535551f, 0.23550670f, -0.05137609f, 0.20294727f},
  {0.90413189f, 0.19660838f, 0.11735388f, 0.00226949f, -0.11588585f, 0.18417390f, 0.20638308f, -0.36204270f, 0.25506449f, -0.50820500f, -0.05148894f, 0.26163235f, -0.30129442f, 0.32089967f, 0.12236175f, 0.13638176f, -0.30516961f, -0.10883952f, 0.02236944f, 0.20781508f, 0.08636661f, -0.08187677f, 0.17054453f, 0.03334656f, 0.15648916f, -0.17816152f, 0.47307536f, 0.05940673f, 0.21437176f, -0.03545160f, 0.02229124f, 0.16279685f, -0.34918660f, 0.28226936f, 0.10327158f, -0.40245000f, -0.18583648f, 0.14449739f, -0.22340323f, 0.00796892f, -0.08299702f, 0.03484400f, -0.20623428f, 0.41680896f, 0.25786817f, 0.19953452f, -0.08380282f, -0.15968424f, 0.10402541f, -0.24077284f, -0.55285811f, -0.15808730f, -0.00498761f, 0.16836613f, 0.07045664f, -0.00951099f, 0.02384058f, 0.68544847f, -0.21489517f, 0.07282506f, -0.34921768f, 0.22283503f, 0.34855789f, -0.11744279f},
  {-0.26587921f, 0.11486860f, 0.06826192f, -0.12490398f, 0.28440794f, -0.18269700f, -0.01845956f, 0.19248357f, -0.12497466f, 0.02896278f, -0.00062987f, -0.14086488f, 0.16942677f, -0.07903664f, 0.17049181f, -0.16845213f, -0.10036590f, -0.33710846f, 0.02681211f, -0.06669229f, 0.21544206f, -0.05284458f, 0.20947765f, -0.12671988f, 0.13834131f, 0.08291166f, 0.11811493f, 0.20800957f, 0.11074829f, 0.09341181f, -0.15024172f, -0.30544898f, 0.12948886f, 0.07552781f, 0.15140203f, -0.04137421f, -0.17369872f, -0.18414836f, 0.13277690f, -0.09561699f, -0.11512923f, 0.01544993f, -0.21700026f, 0.07125819f, -0.18347611f, 0.15601400f, -0.13663508f, -0.11074260f, -0.27163839f, -0.22158197f, -0.08134698f, -0.00916045f, 0.02098837f, -0.09353128f, 0.13216214f, 0.20435974f, 0.02730755f, -0.28083235f, 0.02673610f, -0.22434328f, -0.17934503f, 0.24658252f, -0.22098851f, 0.03471762f},
  {0.13236336f, 0.07806186f, 0.03935815f, -0.23480846f, -0.14985710f, 0.04857842f, -0.19158898f, -0.06879418f, -0.15341547f, -0.22235388f, -0.05891774f, -0.02458604f, 0.07501052f, 0.11836462f, 0.15365733f, -0.10954022f, -0.15517324f, -0.10338249f, 0.08586191f, 0.10911786f, -0.18029597f, 0.21740320f, -0.18652385f, -0.00390161f, 0.09714922f, 0.28123212f, 0.13373476f, 0.14197673f, -0.09825910f, 0.15093595f, -0.20705822f, 0.23264591f, 0.06795189f, 0.13756043f, -0.02585140f, 0.06330289f, 0.02464728f, 0.09982681f, -0.21558748f, -0.17563914f, -0.15379979f, -0.14650290f, 0.19088094f, -0.02844066f, 0.26708597f, -0.07430360f, -0.14524202f, 0.19739321f, 0.08144321f, -0.02492377f, 0.00882342f, 0.13512354f, -0.12776798f, 0.25596434f, 0.17122413f, 0.07348037f, -0.01962804f, 0.14803232f, -0.28398260f, -0.19572189f, -0.12634888f, -0.00275637f, 0.23760948f, 0.10504001f},
  {0.14331947f, -0.01965913f, -0.03489966f, -0.06975368f, 0.31533641f, -0.24303190f, 0.15261257f, -0.02779933f, -0.07426150f, 0.07078710f, 0.02128510f, 0.23483516f, 0.17326131f, -0.01761671f, -0.13732319f, 0.04377379f, 0.23979874f, -0.21131317f, 0.04589287f, 0.04368931f, 0.16806433f, -0.17389862f, 0.13213471f, 0.22871062f, -0.18659383f, -0.15132639f, 0.28396699f, -0.16392641f, 0.14485748f, -0.01477888f, -0.13355288f, 0.15044782f, -0.07324153f, 0.05609911f, -0.10667506f, 0.03709462f, -0.15078975f, -0.10075740f, 0.30034918f, -0.15288118f, 0.12223888f, -0.10120967f, 0.09171268f, -0.03688094f, 0.20202678f, -0.06468248f, -0.13971570f, -0.25771239f, -0.21150075f, -0.02798930f, -0.09283961f, 0.15606783f, -0.00486636f, -0.15414704f, 0.03452322f, 0.08613474f, -0.22622727f, -0.15635197f, -0.24921755f, 0.12027758f, 0.03961228f, 0.05805893f, 0.18219407f, 0.13973248f},
  {-0.00042916f, 0.16303100f, -0.14156203f, -0.15204354f, -0.04541060f, -0.07540836f, -0.02213892f, 0.36372805f, -0.29569510f, -0.17815448f, -0.01625008f, 0.24870780f, -0.12397363f, 0.03742345f, -0.26702970f, -0.20299166f, 0.30109948f, 0.15306884f, -0.26333934f, 0.41525230f, 0.15778765f, 0.16671154f, -0.03835182f, 0.03840472f, -0.07873116f, 0.01715394f, -0.17049287f, -0.25011402f, -0.16170263f, 0.07823560f, -0.14688015f, 0.05673237f, 0.19248569f, -0.16719049f, 0.02684106f, -0.01471623f, 0.23588388f, -0.24135804f, 0.14469746f, 0.14838278f, 0.27664605f, 0.08847993f, -0.05129834f, 0.16398977f, 0.13930856f, -0.00089870f, -0.24978322f, 0.14546685f, 0.00609881f, 0.06560173f, -0.12367132f, 0.23573023f, -0.01087355f, 0.02351087f, -0.24072304f, 0.05890223f, 0.13560547f, -0.24988402f, 0.33380005f, -0.05553840f, 0.18219511f, 0.15629464f, 0.01420424f, 0.10075940f},
  {0.15908355f, -0.02797110f, -0.06898206f, 0.07516348f, 0.22329547f, 0.08331851f, 0.12725902f, -0.08387257f, 0.09529402f, -0.19874130f, 0.04001378f, -0.30255458f, -0.12025256f, -0.06793650f, -0.06837916f, 0.07567471f, -0.03282013f, -0.10585040f, -0.14513226f, -0.09540744f, -0.12993537f, -0.21024294f, 0.04766149f, 0.10910488f, 0.04602059f, -0.08240217f, -0.04783274f, 0.17720206f, 0.00569206f, -0.01467030f, -0.23563612f, -0.11600058f, -0.10472830f, -0.01548168f, 0.02007097f, 0.01598967f, 0.05320555f, 0.11244147f, 0.19841053f, 0.06915525f, 0.26349220f, -0.25246316f, -0.17356914f, -0.22684659f, 0.04021708f, 0.17078933f, -0.13613535f, 0.15348697f, -0.24357143f, 0.20505258f, -0.07003392f, -0.21650249f, 0.00572716f, -0.14149418f, -0.08539812f, -0.10241381f, 0.04863810f, -0.00851319f, -0.06109460f, 0.03890813f, 0.08794163f, -0.07805999f, -0.06870691f, -0.18705031f},
  {-0.05537862f, 0.07711488f, -0.33187288f, -0.07478408f, 0.08842533f, -0.14144763f, -0.13670506f, 0.05760234f, 1.03920746f, 0.15083684f, 0.04226416f, 0.13889886f, -0.12092942f, 0.03389626f, 0.13315827f, -0.15776104f, 0.34215200f, 0.27590141f, 0.01031596f, -0.08629471f, 0.20867082f, 0.10660567f, 0.98446155f, 0.22739191f, -0.00687916f, -0.49946436f, 0.99902040f, -0.30825734f, 0.23358981f, -0.22125095f, -0.04794786f, -0.04001582f, -0.06504529f, -0.07351763f, 0.11205872f, 0.07969964f, -0.01847875f, 0.14163840f, -0.19486514f, -0.46460325f, -0.40919605f, -0.18879089f, -0.03548588f, 0.17846337f, 0.03294641f, -0.21534978f, 0.48368764f, 0.12795635f, 0.25341597f, -0.15856495f, 0.55365962f, 0.07502101f, -0.07101782f, 0.04368035f, 0.04225074f, 0.05780423f, -0.48498189f, -0.48348570f, 0.28898671f, -0.09034032f, -0.52546227f, -0.30510658f, -0.71086568f, 0.07502578f},
  {-0.14416786f, -0.09298330f, -0.11898874f, -0.06568952f, -0.16571532f, 0.01700197f, -0.21680766f, 0.05937983f, -0.18262199f, -0.02206394f, 0.27063060f, 0.10237300f, -0.02829316f, -0.13770492f, -0.16207837f, 0.06286412f, 0.27703473f, -0.00458090f, -0.00694846f, 0.11490161f, 0.06572157f, -0.23609932f, 0.03005851f, 0.25269121f, -0.26742804f, 0.18377334f, -0.13377774f, 0.03709293f, -0.28010696f, 0.00516381f, 0.17473476f, -0.13212004f, 0.05384570f, 0.16634451f, 0.15153693f, -0.16543560f, 0.04803015f, -0.23473504f, 0.28649840f, 0.15733711f, 0.00831303f, 0.23908362f, -0.03917500f, 0.09346338f, -0.26978651f, 0.09568583f, -0.17705880f, 0.06583712f, 0.05427493f, 0.02993704f, -0.21379322f, -0.13689481f, -0.10328267f, -0.07831544f, -0.24786335f, 0.21567474f, 0.01533379f, -0.12140867f, 0.02395479f, -0.05539786f, -0.00162441f, 0.02998386f, 0.18249393f, 0.00658460f},
  {0.17935133f, 0.21124271f, -0.19637929f, 0.09554141f, -0.23283979f, 0.16441062f, -0.00834685f, 0.32617083f, 0.26077634f, 0.16980997f, 0.04766520f, -0.07132036f, -0.23664689f, -0.04886033f, -0.03280636f, 0.07734140f, -0.04713496f, 0.27635512f, 0.07681398f, 0.18765657f, -0.19767764f, 0.17377612f, 0.24647728f, -0.03744997f, 0.19730523f, -0.19025314f, -0.15690921f, 0.02897746f, 0.11277273f, -0.15088595f, -0.10141105f, -0.20588624f, -0.28598574f, -0.22185893f, 0.37309912f, 0.01488903f, 0.03651293f, 0.11891191f, -0.17402978f, -0.00982877f, -0.12218522f, -0.29647145f, 0.16629861f, -0.12039762f, 0.10232249f, 0.16411167f, -0.20854226f, -0.13710195f, 0.27467752f, 0.10184048f, -0.26403546f, 0.31478080f, -0.32877108f, 0.15101111f, 0.34012660f, -0.08772743f, -0.42728683f, -0.24207912f, -0.10786347f, -0.20032933f, 0.05384932f, -0.28273416f, -0.09443855f, 0.28426275f},
  {0.21181165f, 0.03629736f, -0.09475660f, 0.04747530f, 0.05913334f, -0.02427995f, -0.24273564f, 0.16223060f, 0.03180330f, -0.14419572f, -0.05161268f, 0.02772057f, 0.14777492f, 0.09895688f, 0.03326382f, -0.25926626f, 0.12894583f, -0.04242337f, -0.20646280f, -0.11089306f, 0.25768518f, -0.13428555f, 0.14014599f, -0.10484675f, -0.27002743f, -0.16444975f, 0.33610380f, 0.09802216f, 0.20374523f, -0.04124149f, -0.21478266f, 0.03112855f, -0.02173663f, 0.18041745f, -0.26487920f, 0.00971408f, -0.15356994f, -0.17354894f, 0.13612229f, -0.05198513f, -0.11738688f, -0.08787114f, -0.10080458f, 0.25693342f, 0.18959740f, 0.13515276f, 0.22493048f, -0.10442615f, 0.04456219f, -0.08896150f, -0.03293639f, 0.17334466f, -0.17875966f, 0.13794880f, -0.09422194f, 0.00562593f, -0.03936936f, 0.17568521f, 0.23362502f, 0.02647505f, -0.25743020f, -0.00982803f, -0.23948897f, 0.07183708f},
  {0.09000552f, 0.02414683f, -0.16701774f, -0.12843841f, 0.16762412f, -0.07862218f, -0.27864283f, -0.13581546f, 0.22306865f, 0.11270302f, -0.00037760f, 0.07179154f, -0.06312404f, 0.11776292f, -0.11679678f, -0.17452927f, -0.00614529f, -0.24156891f, 0.07794688f, 0.25577742f, 0.10242985f, -0.26492640f, -0.11312046f, 0.26302224f, -0.27154955f, 0.27437305f, 0.11811558f, -0.09977691f, -0.25992531f, -0.21238062f, 0.08710749f, 0.12438742f, 0.09292495f, 0.03921639f, -0.33967268f, 0.24759442f, 0.27555013f, -0.30743337f, 0.28522795f, 0.02517726f, 0.13513203f, 0.17313598f, 0.03317324f, 0.39899075f, -0.24003993f, -0.18587960f, 0.27385178f, -0.21839741f, -0.17781226f, -0.15294454f, 0.04585150f, 0.23208858f, 0.31968108f, -0.18771349f, -0.35768142f, -0.20255136f, 0.25035620f, 0.10212743f, 0.03027657f, 0.12288333f, 0.15171859f, 0.25599614f, 0.22710887f, -0.16373397f},
  {0.18520208f, -0.04934461f, 0.19187161f, 0.15938033f, 0.18196581f, 0.07206534f, -0.21409610f, -0.06890547f, 0.22431642f, 0.20663768f, -0.17069443f, -0.14355803f, -0.17173740f, 0.10239521f, 0.03966966f, -0.14273933f, 0.06610113f, 0.12685102f, 0.12405359f, 0.00242443f, 0.11965217f, 0.02608559f, -0.05777907f, 0.06410393f, 0.00105735f, 0.30669874f, 0.11757968f, 0.08897116f, -0.25249493f, -0.04760631f, -0.23428343f, -0.12380575f, 0.13653882f, 0.26801774f, -0.30358464f, -0.03627535f, 0.24770412f, -0.26687041f, 0.07779544f, 0.09807800f, 0.06776996f, -0.12144812f, -0.16052592f, 0.17539732f, 0.00355243f, -0.33120918f, 0.18964830f, -0.27623677f, 0.03015279f, -0.23469943f, 0.29157162f, -0.10642711f, -0.00442408f, -0.22893934f, -0.18875125f, 0.13414757f, 0.27663860f, -0.04686762f, 0.07341096f, 0.09554935f, 0.18391736f, 0.07418180f, -0.04356340f, -0.08569351f},
  {0.01115018f, -0.23948148f, -0.01438759f, 0.17758581f, 0.18190485f, -0.26367402f, 0.15464617f, -0.14894518f, 0.11910754f, -0.38413247f, 0.27993771f, -0.10320728f, -0.06381672f, -0.01509387f, -0.01133893f, 0.06962747f, 0.01021507f, 0.09966115f, -0.08378942f, -0.35082042f, -0.30172187f, -0.20745076f, 0.29488742f, 0.06170169f, -0.03044021f, 0.22221120f, -0.08896694f, 0.02798312f, -0.16651236f, 0.08033726f, 0.08062782f, -0.24783874f, -0.00956967f, 0.06662548f, 0.23551212f, 0.16766946f, 0.30258071f, -0.23727489f, 0.07908469f, 0.03907665f, -0.19201027f, 0.25229678f, 0.12650260f, -0.06621271f, -0.16593267f, 0.09712017f, -0.25426042f, -0.22027388f, -0.13214774f, -0.34466830f, -0.26878503f, 0.38695678f, -0.07389209f, 0.10095697f, -0.15022351f, 0.42066655f, 0.14172962f, -0.22801323f, 0.27776197f, 0.10471963f, -0.39399406f, 0.23054016f, -0.12082028f, 0.12366660f},
  {-0.14607637f, -0.22278978f, 0.18401800f, 0.06670936f, 0.03224428f, 0.00154843f, 0.07670620f, -0.29808718f, 0.03377253f, -0.16527753f, 0.16145970f, 0.00416100f, 0.22167122f, -0.18933570f, -0.33053306f, -0.10123840f, -0.03662995f, -0.17405169f, 0.20713967f, -0.23942789f, -0.15507962f, 0.14486167f, 0.00339676f, 0.16681944f, -0.26091379f, 0.07909552f, -0.19810626f, -0.24968889f, 0.14895612f, -0.21453984f, 0.02407280f, -0.04487004f, -0.06228909f, 0.25526559f, -0.33698276f, 0.09795873f, 0.30206341f, -0.08937912f, 0.28540453f, -0.23855345f, 0.04937465f, -0.12552626f, 0.03362579f, 0.16760211f, -0.14611462f, -0.00797456f, -0.09952284f, -0.00913568f, -0.09571805f, 0.14926295f, 0.10797670f, -0.06846475f, -0.12095252f, -0.22996821f, -0.20294888f, -0.17278579f, 0.18669917f, 0.04647063f, 0.09159894f, -0.20528622f, 0.18903120f, 0.15106294f, -0.20647854f, 0.05524313f},
  {-0.06741060f, -0.13996091f, -0.13362394f, -0.13384376f, -0.19919546f, 0.25311387f, 0.27964225f, 0.05492200f, -0.01144543f, -0.11422117f, 0.05239692f, -0.02059861f, -0.29312485f, -0.05316247f, 0.39708182f, -0.05853614f, -0.23578839f, 0.13433075f, -0.18328477f, -0.09752420f, -0.17842472f, -0.14388701f, 0.12785287f, -0.02859415f, -0.00901417f, -0.05661687f, 0.13024695f, 0.29042739f, 0.01614060f, 0.08350928f, 0.28126886f, 0.05611905f, -0.30482376f, -0.28057286f, 0.19365881f, 0.14158183f, -0.11238091f, 0.18927954f, -0.25032234f, 0.05478879f, 0.03918867f, -0.02096783f, 0.28102791f, 0.25934461f, -0.17452523f, 0.16364297f, -0.21742502f, 0.13952337f, 0.18850574f, 0.17023459f, 0.03864393f, 0.00953246f, 0.06246125f, 0.11291213f, 0.02689098f, 0.19998454f, -0.02325351f, -0.20417444f, 0.12745529f, 0.18599717f, -0.22199978f, 0.24041596f, -0.26629078f, -0.03674391f},
  {-0.05396537f, 0.15961216f, 0.11817130f, 0.01831680f, 0.05043641f, -0.15710558f, -0.30245015f, -0.07081727f, 0.21805260f, 0.01847785f, 0.27476415f, -0.24862534f, 0.26118752f, 0.17615047f, -0.07850512f, -0.14105079f, 0.32801095f, -0.05453380f, -0.09708342f, -0.51683390f, -0.14704672f, 0.08118346f, 0.24788232f, 0.21598764f, -0.20747499f, 0.27799317f, -0.06737275f, 0.10680166f, 0.13906287f, -0.05621489f, 0.14023322f, -0.04321577f, 0.06496006f, 0.20056741f, -0.15968706f, -0.01685698f, 0.09911676f, -0.07224835f, -0.02566509f, -0.16607644f, 0.16028079f, 0.16396844f, -0.32304138f, -0.25301144f, -0.18189865f, -0.22556360f, 0.08582664f, 0.12533459f, 0.00705602f, -0.06783917f, 0.04034952f, 0.22688369f, 0.14783339f, 0.10758480f, -0.00819983f, -0.25403455f, 0.23285462f, -0.07971218f, 0.20822972f, -0.22638601f, -0.16175929f, 0.24974987f, -0.13110894f, 0.07144856f},
  {-0.07637605f, 0.04172781f, 0.15772519f, 0.00274897f, -0.04527431f, -0.13734673f, -0.28843006f, -0.03351425f, 0.04239439f, 0.25866133f, 0.18637040f, 0.18027794f, 0.14596011f, 0.10221513f, -0.22740217f, 0.20710807f, 0.15992333f, -0.01677263f, -0.18072887f, -0.01862760f, 0.02775080f, 0.19048494f, 0.02779258f, -0.01927936f, 0.18273917f, -0.18318093f, 0.00554916f, -0.27938554f, 0.06440609f, 0.15975092f, -0.13995050f, 0.18758596f, -0.09995297f, 0.25537258f, 0.03301984f, 0.16524331f, -0.22550900f, 0.13361013f, 0.14021841f, -0.11077126f, 0.25161645f, -0.15520954f, 0.11599404f, -0.07495589f, 0.08812540f, -0.06048255f, -0.15071660f, -0.15201049f, -0.30977720f, -0.07183402f, -0.04801653f, 0.11948147f, -0.04691805f, -0.16723809f, 0.04207798f, -0.29015830f, 0.13768171f, 0.20767540f, 0.13970876f, 0.02713751f, 0.24103968f, -0.12000565f, -0.18805622f, -0.17912297f},
  {0.23691081f, -0.28039718f, 0.13216826f, 0.39957049f, 0.24001905f, -0.14212415f, -0.31862274f, 0.00436900f, 0.06960173f, -0.13846113f, -0.16434561f, 0.08260772f, 0.13458903f, 0.23589998f, -0.03904694f, 0.06693716f, 0.09340239f, -0.03968675f, -0.04078274f, -0.20104878f, 0.04115455f, 0.11324644f, 0.25460398f, 0.00799098f, -0.02798624f, 0.29304633f, 0.11117817f, 0.00668100f, -0.22086582f, -0.09220734f, -0.20512190f, 0.00484667f, 0.06813642f, 0.14239047f, 0.03300400f, 0.10757308f, 0.24561158f, -0.21112260f, 0.13312235f, -0.20193021f, -0.00832456f, -0.08890380f, -0.15500772f, -0.31884539f, -0.16450155f, -0.26244244f, 0.34348351f, -0.09073190f, -0.13418293f, -0.27003640f, 0.16578400f, -0.11766049f, 0.00833230f, -0.10039106f, -0.39177400f, -0.33387563f, 0.03014456f, -0.15393323f, -0.09679463f, -0.07796752f, 0.21216613f, 0.08678354f, 0.05730040f, -0.20283467f}
};

const float b1[H1_SIZE] = {
  0.38067165f, -0.15782493f, 0.06236220f, 0.24273056f, -0.06544431f, 0.11315567f, -0.12876326f, 0.35850191f, 0.14006296f, 0.17540374f, 0.12676573f, -0.13425405f, 0.11963975f, 0.16684075f, -0.10288444f, 0.00250286f, 0.26421389f, 0.29204988f, 0.18275020f, 0.11997848f, 0.30067128f, 0.28804305f, 0.30762303f, -0.16733338f, 0.10248727f, -0.11206464f, -0.03538969f, -0.38834858f, 0.02347765f, -0.12045323f, -0.29794165f, 0.11036632f, 0.14884439f, 0.11493452f, -0.29514384f, 0.12048928f, 0.16633271f, -0.33783403f, -0.10263967f, 0.06437815f, 0.37510747f, 0.02172836f, 0.00013421f, 0.14954959f, 0.19035417f, -0.37443534f, 0.22106475f, 0.33729479f, 0.01622689f, 0.09517113f, 0.26326233f, 0.02880133f, 0.44600618f, -0.32812646f, -0.14232995f, -0.28415316f, -0.02138724f, 0.09350323f, 0.06424841f, 0.03559695f, 0.18000162f, -0.09254713f, -0.11401097f, -0.11529126f
};

const float W2[H1_SIZE][H2_SIZE] = {
  {0.31823686f, 0.64703870f, 0.17906207f, 0.83464241f, 0.42132711f, 0.34650689f, 0.17238919f, 0.39085051f, 0.13448401f, -0.36737153f, -0.06851619f, 0.55708033f, 0.33579406f, 0.58939981f, 0.70483744f, -0.06248687f, -0.47886083f, 0.92493761f, 0.05380754f, 0.15276583f, 0.16645946f, 0.17467113f, -0.58988547f, -0.04124928f, -0.15955143f, 0.16198593f, 0.21062961f, 0.35270563f, -0.02449958f, -0.59742939f, -0.11081129f, 0.17731605f},
  {-0.04302207f, -0.14769840f, -0.04379725f, -0.02699475f, 0.17804606f, 0.03551203f, -0.04538758f, -0.02678042f, 0.35493949f, 0.05872123f, 0.17936626f, -0.08433808f, 0.04220040f, -0.21212037f, 0.05133838f, 0.18084380f, -0.00426358f, -0.18576272f, -0.19411808f, -0.03098315f, -0.13303758f, -0.26713890f, 0.16910255f, -0.03645834f, -0.08130874f, 0.19048105f, -0.19391453f, 0.20238976f, -0.04191578f, 0.21603175f, -0.00763627f, 0.07738452f},
  {0.12526242f, -0.06478001f, 0.34775683f, 0.06621221f, 0.02875610f, -0.16362667f, 0.19398268f, -0.06066203f, 0.16037402f, 0.02341162f, 0.09441329f, 0.25590700f, -0.10286792f, -0.16019034f, -0.18319249f, -0.17340568f, -0.22124076f, 0.07845298f, 0.06580535f, 0.12727326f, -0.07693801f, 0.09412060f, 0.07617322f, -0.16644008f, 0.08443768f, -0.14239357f, -0.01773149f, -0.21257709f, 0.34339285f, 0.22758457f, 0.10994425f, 0.19416644f},
  {0.02525623f, 0.01394619f, 0.02072694f, -0.04789623f, 0.16137740f, 0.11417560f, -0.02366393f, 0.42982516f, 0.35208237f, 0.11515079f, 0.02355000f, 0.34446824f, -0.28310496f, 0.23659934f, -0.06966922f, 0.10986932f, -0.16413614f, 0.40204629f, 0.34534457f, -0.12484866f, 0.04701581f, 0.30318445f, -0.04759244f, 0.14771035f, 0.03389297f, 0.05898199f, -0.14286076f, -0.00326376f, 0.22766851f, -0.09347186f, -0.04505137f, 0.12573656f},
  {-0.00892135f, 0.22545458f, 0.29600564f, 0.04675728f, 0.21822423f, 0.09299678f, 0.10102412f, 0.28843409f, -0.07399259f, -0.16090305f, 0.14596853f, 0.02645137f, 0.10113430f, 0.17486198f, -0.19872178f, 0.16094197f, -0.02829331f, 0.11534374f, 0.19877827f, 0.15873016f, -0.28164461f, 0.05363082f, 0.12658922f, 0.08157934f, 0.14533259f, -0.28828818f, -0.11399394f, -0.26640880f, 0.20401104f, -0.07056530f, -0.09946278f, 0.23422641f},
  {-0.35719848f, 0.29420164f, 0.22916868f, 0.29488605f, 0.00068851f, -0.31124401f, 0.27134806f, 0.29050770f, 0.27197987f, -0.22701715f, 0.08369917f, 0.24422765f, -0.01473603f, 0.08422816f, 0.15218174f, 0.02165261f, -0.23845646f, 0.19084273f, -0.00903901f, -0.16398084f, -0.15788367f, -0.10325898f, -0.05742164f, -0.19190417f, 0.30344355f, 0.10729057f, -0.23553102f, 0.09206840f, 0.12396478f, -0.03088113f, -0.13564979f, 0.10123886f},
  {0.12951113f, 0.10115782f, -0.21556401f, -0.22746564f, -0.06147888f, -0.16725475f, -0.20661582f, -0.12776411f, 0.13147415f, 0.37410340f, 0.10530836f, 0.17174891f, -0.09511418f, -0.05636032f, -0.15154749f, 0.03774687f, 0.35977140f, 0.00106188f, -0.11956663f, 0.06266899f, -0.16269229f, 0.10045290f, 0.12404639f, -0.03398350f, 0.12081759f, 0.05159076f, -0.22344248f, 0.03736226f, -0.18368362f, 0.20349163f, 0.14331907f, 0.07169832f},
  {-0.11833782f, 0.05594962f, -0.02412806f, 0.30155146f, 0.02967294f, -0.08708128f, 0.08787364f, 0.01217009f, 0.20794944f, -0.20905490f, 0.07281169f, 0.02660807f, -0.44312578f, -0.05451860f, -0.32711187f, -0.13546576f, 0.06466318f, 0.02711664f, 0.46709433f, -0.41157511f, -0.29584166f, 0.24931008f, -0.05523017f, -0.00906307f, 0.05886533f, -0.41936490f, 0.14343472f, -0.34960938f, 0.26931643f, 0.22589333f, 0.01806039f, 0.43710753f},
  {0.21203654f, 0.79989815f, -0.12514889f, 0.63357431f, 0.24170060f, 0.25019592f, 0.19537318f, 0.49862051f, -0.02459313f, -0.65139925f, 0.10414208f, 0.46154183f, 0.40253341f, 0.48607773f, 0.64245248f, 0.07052509f, -0.44834262f, 0.47287202f, 0.22637510f, 0.15861267f, -0.16402182f, -0.00939628f, -0.24754326f, -0.00412950f, -0.13529107f, 0.21955523f, -0.13366093f, 0.29898518f, 0.06603370f, -0.53651816f, -0.05171382f, 0.15538882f},
  {0.24919726f, 0.45379308f, -0.03265029f, 0.41384223f, 0.14951800f, 0.27222231f, -0.04655088f, 0.30608234f, 0.16871209f, -0.21026391f, -0.11810976f, 0.26166895f, 0.14755081f, 0.01597758f, 0.27585536f, -0.07361646f, -0.01366833f, 0.21393609f, 0.33741596f, -0.07133885f, -0.03151391f, -0.14202799f, -0.38983938f, -0.00274063f, -0.11893192f, 0.28436640f, -0.24679802f, 0.04724233f, 0.06457295f, -0.40095219f, -0.30033621f, 0.08011709f},
  {0.00752557f, 0.01584488f, 0.10246894f, 0.12070941f, -0.18971545f, -0.04233458f, 0.25251287f, 0.08434128f, 0.13961983f, 0.00236745f, 0.20593415f, 0.16539516f, 0.02027072f, 0.23915967f, -0.15575291f, -0.22187795f, 0.19888040f, 0.19080772f, -0.06134829f, -0.12240741f, -0.23331346f, 0.01819548f, 0.19997802f, -0.00717960f, -0.02769515f, -0.00759115f, -0.26817712f, -0.12340239f, 0.16615577f, 0.28127623f, 0.14776112f, 0.07314394f},
  {0.07392677f, 0.18260969f, 0.26898995f, 0.11371029f, 0.05199299f, -0.19901685f, -0.06500293f, -0.00560437f, 0.03290802f, -0.06983195f, 0.11406328f, 0.09185170f, -0.36545059f, 0.14410533f, 0.18853718f, 0.11145552f, 0.18187362f, 0.22746342f, 0.46949682f, -0.35180858f, -0.20541112f, -0.01102545f, -0.12605812f, -0.17400093f, 0.17223772f, -0.10040053f, -0.01496042f, -0.45788354f, 0.25389993f, 0.10687407f, 0.00668633f, 0.30459228f},
  {0.36572933f, 0.59548283f, 0.34017977f, 0.66756558f, 0.35368553f, 0.76140267f, 0.24304050f, 0.41662589f, 0.11021717f, -1.00244033f, -0.03751997f, 0.45364019f, 0.13407576f, 0.84989864f, 0.71044934f, -0.15222386f, -0.67740613f, 0.98189676f, -0.01944586f, 0.00638960f, 0.20233065f, 0.11239649f, -0.70299727f, -0.03544508f, -0.32310161f, 0.20958127f, -0.02638354f, 0.39926356f, -0.08535112f, -0.18402599f, 0.13574141f, 0.23067386f},
  {0.66117084f, 0.57762909f, 0.30007872f, 0.62749970f, 0.61218154f, 0.79830879f, 0.27147725f, 0.87119383f, 0.31513688f, -0.83302379f, -0.12466976f, 0.62199444f, -0.01641197f, 0.63673985f, 0.95633578f, -0.16945882f, -0.41254181f, 1.09624338f, 0.31330353f, 0.44858262f, 0.28876433f, 0.34059495f, -0.61019176f, -0.16574381f, -0.35248199f, 0.63902199f, -0.10485453f, 0.83107340f, 0.18205929f, -0.71991718f, -0.28747228f, 0.21133292f},
  {-0.00461060f, -0.22957832f, -0.40051085f, -0.04598295f, 0.14090961f, -0.14804024f, -0.04771120f, -0.18143554f, -0.18512638f, 0.36156356f, 0.31236485f, -0.23970588f, -0.02423224f, -0.22080582f, -0.01457080f, 0.05283068f, -0.11942655f, -0.15447424f, -0.25278246f, 0.24346802f, 0.31773520f, -0.35083678f, 0.21144402f, -0.04732265f, -0.04665349f, 0.16418496f, 0.27084246f, 0.24780947f, 0.00855225f, -0.04689316f, 0.12260582f, -0.24114494f},
  {0.14736241f, 0.09868675f, 0.12299593f, 0.08086726f, -0.07609881f, 0.33439302f, -0.14494574f, 0.10529174f, -0.05406204f, -0.40473783f, -0.19413690f, -0.04886236f, 0.25582886f, 0.02257656f, 0.39940333f, 0.01833980f, -0.18174276f, 0.23743394f, 0.06671996f, 0.15963259f, -0.03858929f, 0.00275789f, 0.01666424f, 0.19365001f, 0.16632138f, 0.04670113f, 0.15661801f, 0.17890203f, 0.05720484f, -0.25505739f, 0.01379863f, -0.12110622f},
  {-0.15538405f, 0.22247456f, -0.06615496f, -0.03072921f, -0.12789088f, 0.16733299f, 0.09772379f, 0.06182843f, 0.24779762f, 0.06200793f, -0.15271389f, 0.16897911f, 0.02183952f, 0.04652072f, -0.20433134f, 0.16001906f, -0.00304466f, 0.10498738f, 0.19855735f, -0.33373997f, -0.31496385f, 0.21467155f, -0.20774861f, -0.04635429f, 0.06604528f, -0.41462982f, 0.21912616f, -0.40314925f, -0.02819740f, -0.06551041f, -0.08401530f, 0.11706027f},
  {0.14480646f, 0.31628427f, -0.13637707f, 0.16232906f, 0.17214172f, 0.15708581f, -0.01896458f, -0.00965226f, -0.00591487f, 0.20211874f, 0.25740880f, -0.10841832f, -0.02358215f, 0.22833779f, 0.20386869f, 0.17202468f, 0.18761291f, -0.01759092f, 0.12206808f, 0.11682224f, -0.17163394f, 0.02906433f, 0.14827454f, -0.11284862f, 0.15685539f, 0.09798200f, 0.19427724f, -0.23661833f, -0.04283702f, 0.06135935f, -0.16546899f, 0.15774779f},
  {0.19100489f, -0.09934840f, 0.06379087f, 0.09935556f, 0.02448931f, 0.21462157f, 0.18815711f, 0.18338351f, 0.17917147f, 0.03441180f, 0.26235142f, 0.16466783f, 0.15658933f, 0.20718195f, -0.04285766f, 0.10430913f, -0.12490352f, -0.03711911f, -0.02281087f, 0.23841251f, 0.17280076f, 0.13831453f, 0.12961364f, 0.01212647f, 0.25824836f, 0.03596473f, 0.02942149f, -0.16729693f, 0.23604913f, 0.12361195f, -0.07468241f, -0.14210047f},
  {0.00754008f, -0.19455756f, 0.28148350f, 0.38764378f, 0.10525163f, -0.25620171f, 0.30398223f, 0.30460531f, 0.17271022f, 0.15418382f, -0.28022614f, 0.14254773f, -0.03236439f, 0.07433101f, -0.21448009f, 0.10951006f, -0.01927946f, 0.16634429f, 0.09795328f, 0.02883728f, -0.33959526f, 0.09127036f, -0.10120403f, 0.16315034f, 0.26265687f, -0.00255206f, -0.16532326f, -0.14058915f, 0.17405756f, 0.21718836f, 0.26159754f, -0.01429320f},
  {-0.02228019f, -0.16993390f, 0.12917295f, 0.04499737f, -0.00378561f, -0.17476854f, 0.15293244f, 0.02706522f, 0.22366813f, -0.07929636f, -0.24096891f, 0.21858838f, -0.31972894f, -0.08656292f, 0.06988056f, -0.11433341f, -0.21167675f, 0.12347465f, 0.46748403f, -0.07132458f, -0.07655799f, 0.14174291f, -0.10373664f, -0.04407325f, 0.21357058f, -0.39914626f, -0.13998280f, -0.41381073f, 0.03947321f, 0.27669582f, -0.15754132f, 0.25494149f},
  {-0.13766116f, 0.35958999f, -0.10748415f, 0.06887215f, 0.22486290f, 0.12454037f, -0.00636303f, 0.05248156f, 0.04158425f, -0.06162049f, -0.08505218f, 0.08270890f, -0.12079152f, -0.05259039f, 0.16449206f, 0.18623930f, 0.07036752f, -0.10956983f, -0.09219427f, 0.28384206f, -0.01980905f, -0.13834412f, 0.05345574f, 0.03564014f, 0.07073446f, -0.00377507f, -0.25836104f, 0.30611211f, -0.03484327f, 0.06780881f, 0.01906899f, -0.02643971f},
  {0.20292273f, 0.38677418f, 0.12698278f, 0.69135571f, 0.50104082f, 0.09871632f, -0.04055377f, 0.68196380f, 0.34739146f, -0.25270939f, -0.12443594f, 0.43884614f, 0.29909101f, 0.42856637f, 0.37107959f, -0.25343430f, -0.27429062f, 0.54123455f, 0.08112115f, 0.31057951f, 0.00854769f, 0.24938382f, -0.60839432f, 0.06498449f, 0.12039165f, 0.01195167f, -0.22757645f, 0.31049383f, -0.05259634f, -0.19189076f, 0.00401413f, 0.23066071f},
  {-0.13638043f, 0.01138719f, 0.15037063f, -0.15421134f, 0.08889601f, 0.06245894f, 0.12419807f, -0.07491646f, 0.16543566f, -0.14697048f, -0.14852142f, 0.22903280f, 0.09564750f, -0.21788803f, -0.09262021f, -0.16663922f, -0.13174613f, -0.05001961f, -0.16411479f, -0.03778864f, 0.12127832f, 0.11285973f, 0.10558261f, -0.08296342f, 0.26035765f, 0.11176191f, 0.14372425f, 0.16690162f, 0.25907013f, 0.05227852f, -0.11092236f, 0.08516935f},
  {0.15338276f, 0.18136413f, 0.00073849f, -0.14912367f, -0.02353794f, 0.18881884f, 0.01116022f, 0.06761029f, -0.08503028f, 0.03534175f, 0.30469427f, 0.10317637f, 0.17551336f, -0.01525796f, 0.10523304f, -0.13257261f, 0.16825657f, -0.02137579f, -0.06659228f, 0.10576491f, 0.25162813f, -0.22706307f, 0.22098690f, -0.08106813f, 0.00043949f, -0.19760861f, -0.05432689f, -0.01438030f, -0.21415307f, 0.03276489f, 0.17089622f, -0.10387903f},
  {-0.12015168f, -0.23954481f, 0.38245541f, -0.24105369f, -0.14490241f, -0.37408173f, 0.07761762f, -0.22729236f, 0.20231627f, 0.52200210f, 0.07104156f, 0.04279948f, -0.43233973f, -0.38709313f, -0.33821324f, -0.14299192f, 0.16931091f, -0.13426982f, 0.29914728f, -0.30092540f, -0.04780779f, 0.49225667f, 0.24971452f, 0.00000000f, 0.49974826f, -0.46771133f, -0.11337268f, -0.41990820f, 0.35282066f, 0.42936301f, 0.00131205f, 0.21669418f},
  {0.31171703f, 0.72792906f, 0.00809667f, 0.94422859f, 0.55187190f, 0.39021525f, 0.29187039f, 0.66302860f, 0.16117324f, -0.27396643f, -0.16152106f, 0.47181803f, 0.06498263f, 0.34634891f, 0.42986077f, -0.18597193f, -0.39016417f, 0.58188456f, 0.28527859f, 0.23491517f, 0.09436217f, 0.01810380f, -0.58366632f, 0.00000000f, -0.31297576f, 0.59055001f, -0.03421832f, 0.31498152f, 0.00812342f, -0.54833263f, -0.27872747f, 0.26847801f},
  {-0.23115751f, -0.28164104f, -0.04295542f, -0.15897040f, -0.17411768f, 0.12263130f, 0.04724177f, 0.00370880f, -0.03501870f, 0.14259973f, 0.16356203f, 0.04216365f, -0.00995680f, -0.25167966f, -0.09977527f, -0.03249253f, 0.32922578f, 0.02098491f, 0.03085034f, -0.30920330f, -0.04876007f, -0.20078726f, 0.07799237f, -0.11006325f, 0.23412079f, -0.24038325f, -0.14385614f, 0.08999348f, -0.16166767f, 0.15987098f, 0.01771157f, -0.12467886f},
  {0.16429445f, -0.16659993f, -0.09435531f, 0.08015702f, 0.13297874f, 0.05972420f, -0.15529892f, -0.15811042f, 0.18584335f, 0.12114727f, 0.29805508f, 0.22064155f, 0.21988362f, -0.00039810f, -0.05647371f, 0.10477540f, 0.04782799f, -0.13811335f, 0.12722659f, 0.19570790f, 0.00304901f, -0.34483933f, 0.01283922f, 0.10476972f, 0.25146180f, -0.18309595f, -0.19679610f, 0.14026037f, 0.00532255f, 0.07407817f, 0.21346347f, -0.17899543f},
  {0.03447237f, -0.25242698f, 0.08330742f, 0.08970769f, -0.04105968f, 0.18800534f, -0.00348934f, -0.11483604f, -0.17315209f, 0.10799187f, 0.10114808f, -0.26696777f, -0.12645754f, -0.09728015f, 0.06730128f, 0.04809393f, 0.24017057f, -0.31319314f, -0.13427760f, 0.01160468f, -0.05641674f, -0.16840515f, 0.30311522f, 0.10212059f, 0.12968107f, -0.26370460f, 0.09110070f, -0.03183624f, 0.09382198f, 0.25869963f, 0.22458684f, -0.00485049f},
  {-0.22511052f, 0.07063718f, 0.12337870f, 0.12329200f, -0.20111877f, -0.21585816f, 0.16046725f, 0.10980733f, 0.18505657f, 0.28333703f, 0.18239108f, 0.03143737f, 0.14400427f, -0.01205043f, 0.02884280f, -0.08108508f, 0.10072186f, 0.07741433f, -0.08914141f, -0.18772347f, -0.11004134f, -0.09639942f, -0.01850855f, -0.01944062f, 0.29358098f, -0.01121332f, -0.21297920f, -0.27093047f, 0.05673066f, 0.05286004f, 0.15749243f, -0.00786951f},
  {0.19574216f, 0.07108580f, 0.22447273f, 0.07850284f, 0.39016047f, 0.13492589f, 0.07542267f, 0.09601207f, 0.02817693f, 0.08088756f, -0.13145795f, 0.25431424f, -0.12796120f, 0.17719150f, 0.29685268f, 0.09530570f, 0.06885120f, 0.02982071f, -0.00480993f, 0.11548871f, -0.02792627f, 0.13714080f, -0.30230343f, -0.12057869f, -0.22431888f, 0.30177131f, -0.13125147f, 0.16583046f, -0.09991308f, 0.02600329f, -0.11109678f, 0.21328278f},
  {0.64236134f, 0.66672939f, 0.35386491f, 1.22974229f, 0.77533543f, 0.74675870f, 0.05166753f, 0.87916750f, 0.29078013f, -1.13901091f, -0.10406046f, 0.55681461f, 0.29640719f, 0.78780198f, 0.97172457f, 0.21600626f, -0.86917716f, 0.90005565f, 0.26205605f, -0.13274111f, -0.14130564f, 0.10298724f, -0.65104586f, 0.00078620f, -0.23807396f, 0.51989865f, -0.13928813f, 0.40892076f, 0.35582620f, -0.29552823f, -0.01090816f, 0.15786672f},
  {0.11536629f, 0.10402891f, 0.09033326f, 0.15341726f, 0.24028566f, -0.00533016f, 0.10983057f, 0.30892363f, 0.19966935f, -0.05149256f, 0.07789852f, 0.00582185f, -0.24613303f, 0.02186849f, 0.21759167f, 0.18479784f, -0.08051074f, 0.13575654f, 0.07808361f, 0.18915404f, 0.16864932f, 0.15096246f, 0.17875497f, 0.08729184f, 0.10043578f, -0.31136507f, -0.04323889f, -0.15017699f, 0.14119202f, -0.02321161f, 0.26222405f, -0.03028517f},
  {-0.07062157f, 0.04213254f, 0.01802557f, 0.07191199f, -0.16868918f, -0.24643514f, -0.05221719f, 0.01145218f, -0.21621944f, 0.28597912f, 0.18192504f, 0.03397826f, 0.11744247f, -0.22051188f, -0.29492217f, 0.09067706f, 0.18823837f, 0.06094514f, -0.01049991f, 0.15112893f, 0.27187562f, -0.08572193f, 0.13658255f, -0.05509382f, -0.10096303f, -0.05648216f, -0.10247640f, 0.14897254f, -0.01125723f, 0.14231645f, -0.09217817f, -0.24259429f},
  {0.16003163f, 0.64023924f, -0.07770141f, 0.77735049f, 0.52200389f, 0.60462725f, 0.21101020f, 0.34725001f, 0.39045122f, -0.44468451f, -0.25471091f, 0.57458991f, 0.08197825f, 0.63283801f, 0.82930672f, -0.24014790f, -0.33734062f, 0.88562292f, 0.39486533f, 0.08136800f, 0.24408001f, -0.11784738f, -0.75384712f, -0.18834378f, 0.15084791f, 0.40801194f, 0.16890360f, 0.60361791f, -0.07115866f, -0.48439252f, -0.52939916f, -0.03618943f},
  {-0.00537289f, 0.16453932f, 0.13646227f, 0.01422115f, 0.07813503f, -0.08999354f, 0.36716452f, 0.34085098f, 0.37723634f, -0.06107652f, -0.15562713f, 0.30817169f, -0.03489301f, -0.02624444f, 0.04745943f, -0.20075925f, -0.16578677f, 0.16478835f, 0.32750571f, -0.22521447f, -0.15392770f, 0.37486321f, -0.24441439f, -0.06680597f, 0.21443194f, -0.08674370f, -0.23463348f, 0.05067407f, 0.06342971f, 0.00637864f, 0.10221507f, 0.00284643f},
  {-0.01119967f, -0.01671580f, -0.40288973f, 0.05170344f, -0.18280919f, -0.08892239f, -0.42512563f, -0.05188333f, -0.15775678f, 0.33961535f, -0.02155496f, -0.10382093f, -0.05611360f, 0.05832868f, -0.00577356f, 0.02142031f, 0.27582142f, 0.12749204f, -0.44684413f, 0.01135039f, 0.20014749f, 0.02255822f, 0.33717638f, -0.05191512f, -0.06989980f, -0.02069741f, 0.32821667f, -0.06378747f, -0.11236920f, 0.28487471f, -0.08464833f, -0.22593005f},
  {-0.07745663f, -0.03501334f, 0.02644591f, 0.22365652f, -0.12505759f, -0.16975608f, 0.28214303f, -0.08397353f, 0.10012651f, 0.00715049f, -0.04383948f, 0.12776524f, -0.19584587f, 0.02491896f, -0.03139060f, 0.05192237f, -0.18206334f, 0.14184326f, -0.01337123f, -0.16768895f, -0.25163335f, -0.10626947f, 0.18762998f, -0.09299634f, 0.25880349f, 0.13510470f, 0.01814058f, -0.49627015f, -0.01271847f, 0.18605322f, -0.02209956f, -0.09484059f},
  {0.37538001f, 0.75359172f, 0.27638975f, 0.55298758f, 0.40992591f, 0.24823327f, 0.00834669f, 0.67267692f, 0.12878229f, -0.74988121f, -0.42420641f, 0.63527018f, 0.30951536f, 0.50915021f, 0.61780488f, -0.18630251f, -0.48244593f, 0.71391714f, -0.03539716f, 0.08599527f, 0.32265934f, -0.07880657f, -0.65156645f, -0.09245569f, -0.23285995f, 0.44869497f, 0.01349586f, 0.36128718f, 0.29324889f, -0.55621541f, -0.24154225f, 0.00055813f},
  {-0.03621294f, 0.29521841f, 0.23114273f, 0.08928666f, 0.24642307f, -0.20969163f, -0.12080160f, -0.03524403f, 0.03074920f, -0.03191426f, -0.01155342f, 0.28220108f, -0.06672443f, -0.02087299f, -0.24624658f, -0.25778919f, -0.00501446f, 0.16355292f, 0.39209026f, -0.26714891f, -0.32879329f, 0.07948403f, -0.07900023f, -0.18110746f, 0.18907554f, -0.37392768f, 0.03906163f, -0.31844628f, -0.08574323f, -0.01931373f, 0.19808541f, 0.07608657f},
  {0.08510415f, -0.13780317f, 0.31714565f, -0.05391025f, 0.22912163f, -0.00515365f, 0.37211770f, 0.08124121f, -0.04768589f, -0.15535508f, 0.19086920f, 0.09846715f, 0.05841336f, -0.14169474f, -0.08188211f, -0.23036477f, 0.29644093f, 0.16083646f, 0.49513805f, -0.20267539f, -0.03488557f, 0.29575819f, -0.02349182f, 0.12053467f, 0.31237188f, 0.14788122f, 0.06731287f, -0.14780176f, 0.07312255f, 0.30982351f, -0.23247784f, 0.15384571f},
  {0.10672081f, 0.09444050f, 0.30576283f, -0.06168051f, -0.06703833f, -0.25017363f, -0.06437149f, -0.08883084f, -0.06755023f, 0.30489773f, 0.35032326f, -0.16622947f, -0.06427366f, 0.19791986f, -0.20074259f, -0.19483703f, -0.07096783f, 0.03917164f, -0.15678196f, 0.24550235f, -0.00155159f, 0.06535845f, -0.03306856f, -0.01627484f, 0.13477297f, 0.16164236f, 0.10674116f, 0.01008392f, 0.18360770f, 0.22572462f, 0.09417925f, -0.26759103f},
  {-0.47904029f, -0.09703124f, 0.30397579f, 0.15329011f, 0.11221053f, -0.05632989f, 0.37910479f, 0.36817417f, 0.12554325f, 0.02582516f, -0.19865254f, -0.01216207f, -0.42606992f, -0.25520891f, -0.13315172f, 0.12826560f, -0.17159177f, 0.36528534f, 0.41920671f, -0.37008443f, -0.27958480f, 0.08966687f, 0.09279584f, -0.03683190f, 0.01609809f, -0.47351336f, -0.08156099f, -0.20032923f, 0.05611996f, 0.18453479f, 0.15898296f, 0.52675164f},
  {0.09923053f, 0.09561920f, 0.06286804f, 0.25878695f, -0.02726423f, -0.06200263f, -0.21539272f, 0.20002194f, 0.17909643f, -0.05857377f, 0.18249057f, 0.01849312f, -0.30484810f, 0.27717844f, -0.11052291f, -0.23123033f, 0.08035181f, 0.16581774f, -0.27000627f, 0.12062471f, 0.10007184f, -0.21094967f, -0.08503702f, 0.01812170f, -0.09354380f, 0.29824314f, 0.13310380f, 0.34788176f, -0.12465921f, 0.23968717f, -0.06701057f, -0.02384180f},
  {-0.37282348f, -0.27541056f, -0.01272441f, -0.04530400f, -0.23742299f, -0.03371041f, -0.26130304f, -0.02742210f, -0.14416283f, 0.40382358f, 0.39926380f, -0.09560643f, -0.22339903f, -0.12049912f, 0.06070540f, -0.09670705f, 0.00776605f, -0.27203378f, -0.20396738f, -0.00212887f, 0.22601779f, -0.28254592f, 0.12674223f, 0.11745876f, 0.23975110f, -0.07858721f, -0.06750384f, -0.09966061f, 0.11454549f, -0.08593549f, 0.24293695f, -0.03862041f},
  {0.42995673f, 0.44210747f, 0.19069919f, 0.77460551f, 0.35205632f, 0.50386471f, 0.39372602f, 0.66888988f, 0.45598072f, -0.78608006f, -0.31139660f, 0.32627934f, 0.29118446f, 0.68010694f, 0.75953895f, -0.23360562f, -0.53563011f, 0.95912379f, 0.23020755f, 0.26211166f, 0.17169201f, 0.27636340f, -0.62126458f, -0.04807801f, -0.31794593f, 0.39809805f, -0.06571534f, 0.58438981f, 0.26415452f, -0.57063645f, -0.24159208f, 0.09055291f},
  {-0.14550026f, 0.26196191f, -0.16652107f, 0.04753458f, -0.06495885f, 0.18530084f, 0.05644381f, -0.02985276f, 0.09028098f, 0.19992837f, 0.31834808f, -0.07532585f, 0.20854808f, 0.24802104f, 0.26945785f, 0.02603291f, 0.11140592f, 0.01196566f, 0.20961235f, 0.05204450f, 0.13301909f, 0.01302135f, 0.15015005f, 0.08899760f, -0.15115988f, 0.23120637f, -0.00200421f, 0.18844754f, 0.05700633f, -0.04313356f, 0.13965663f, -0.07835857f},
  {0.22654569f, 0.05249242f, 0.05676512f, -0.01513878f, 0.08063228f, -0.03470269f, -0.17881958f, -0.06212651f, -0.15598096f, 0.26537192f, 0.31743839f, 0.01763953f, 0.18348779f, -0.01633744f, 0.15941516f, 0.12214772f, 0.19958578f, -0.01614310f, 0.16310816f, -0.10831136f, 0.25239751f, -0.23026726f, 0.05740776f, 0.06157344f, 0.12034322f, -0.19451183f, 0.21913932f, -0.13897769f, 0.11156259f, -0.13779156f, -0.10306703f, 0.07876553f},
  {-0.06598605f, -0.16955198f, -0.15902422f, 0.00016458f, 0.10250182f, 0.21395172f, -0.18739831f, -0.08982413f, -0.22521864f, -0.14756717f, 0.20119506f, 0.02657067f, -0.15137507f, -0.12137430f, -0.21340065f, 0.13841848f, 0.24749166f, -0.17386085f, -0.17394111f, 0.21378355f, 0.26706347f, -0.03949243f, -0.17993179f, -0.00000000f, 0.06562663f, -0.03002408f, -0.23524423f, 0.08822004f, -0.23298150f, 0.16588920f, -0.08442205f, -0.24292593f},
  {0.34401748f, 0.64849156f, 0.32796252f, 0.61896777f, 0.18744221f, 0.43890566f, 0.02183008f, 0.67629093f, 0.15291910f, -0.46075740f, -0.21687749f, 0.37492597f, 0.34635609f, 0.53543854f, 0.41465563f, -0.16275024f, -0.20962816f, 0.98859155f, -0.07700260f, 0.08007483f, -0.01345692f, 0.31994736f, -0.73302758f, -0.00345391f, -0.02217413f, 0.23445244f, 0.03657306f, 0.40417254f, 0.06437368f, -0.42005518f, -0.19132207f, 0.09014396f},
  {-0.24582292f, 0.13052168f, 0.42414930f, -0.03842718f, -0.02127441f, -0.31265807f, 0.23044208f, 0.09786998f, 0.24556142f, -0.19612096f, -0.45687976f, 0.06350410f, -0.27984715f, -0.37317419f, -0.04216607f, -0.14089929f, 0.23525202f, 0.31881791f, 0.37109798f, -0.42080396f, -0.37952048f, 0.14829513f, 0.20709197f, 0.13992600f, 0.27154773f, -0.16209221f, -0.06926079f, -0.58667034f, 0.27877015f, 0.03145790f, 0.17035784f, 0.22322886f},
  {-0.14753707f, 0.41182274f, 0.05833194f, 0.46795467f, 0.41800442f, 0.26736656f, 0.21307155f, 0.22679146f, 0.26510617f, -0.10780071f, 0.03640891f, 0.19885196f, -0.01866238f, 0.05256221f, 0.11446830f, -0.00291105f, 0.09340498f, 0.07623173f, 0.42293856f, 0.16811474f, 0.23844065f, 0.21608184f, 0.03950141f, -0.18763456f, 0.12802608f, -0.09951445f, 0.16057666f, 0.39148274f, -0.02034309f, -0.25067350f, 0.00697728f, 0.12545656f},
  {0.14994320f, -0.20277189f, -0.28184387f, 0.26335281f, 0.08305787f, 0.09793216f, -0.12331612f, 0.10392208f, 0.06844550f, 0.19558439f, 0.24222259f, 0.03242232f, -0.02838442f, -0.14668116f, 0.10964209f, -0.14032672f, 0.20671599f, -0.15077929f, 0.01052108f, 0.10293642f, -0.14704472f, -0.30664951f, -0.06772399f, 0.02545188f, 0.24296580f, -0.28762376f, 0.25422907f, -0.16223505f, 0.01988635f, 0.29617426f, -0.08975876f, 0.02009678f},
  {-0.24987587f, -0.21905057f, -0.14523587f, -0.23700589f, 0.05371324f, -0.08671436f, -0.11191126f, -0.18187986f, -0.15792449f, 0.24329907f, 0.44153661f, -0.26798460f, 0.20461825f, 0.00060058f, 0.03128817f, -0.02769534f, -0.10496465f, -0.25320268f, -0.10121648f, -0.06493306f, 0.25909066f, -0.16861305f, -0.06789912f, 0.08171752f, -0.05267638f, -0.01049551f, 0.13691477f, 0.15055901f, 0.08097969f, 0.16052890f, 0.05622317f, 0.08147120f},
  {-0.16668676f, -0.28602442f, -0.01279192f, -0.13816762f, 0.11140534f, -0.00424290f, 0.06847656f, -0.20923980f, 0.15172654f, 0.08342984f, 0.25040102f, 0.03816657f, -0.12574124f, -0.24809249f, -0.25352776f, 0.13035226f, 0.33850312f, 0.06704772f, -0.16352776f, -0.09005973f, 0.10737751f, 0.17708963f, -0.05750965f, -0.23600321f, 0.19244416f, -0.17272165f, -0.15342277f, -0.33005258f, 0.01553305f, 0.27945393f, 0.27278650f, -0.00128207f},
  {-0.01454270f, -0.08801198f, 0.11684008f, 0.20910408f, 0.18677817f, -0.04969189f, -0.03333145f, -0.00087585f, 0.08104040f, -0.34381866f, -0.31694421f, 0.37312019f, -0.25838873f, 0.05539462f, 0.26302537f, 0.21680605f, -0.06388057f, 0.45100033f, 0.25839311f, -0.30093443f, -0.29505265f, 0.19572321f, 0.04391261f, 0.00009024f, -0.11221883f, -0.06722413f, -0.20343037f, -0.17227693f, 0.18666343f, 0.14256874f, 0.18303657f, 0.26610377f},
  {0.36402124f, 0.65391099f, 0.18683189f, 0.48523995f, 0.08895222f, 0.26001677f, 0.10143290f, 0.52620697f, 0.44662300f, -0.70219564f, -0.33289006f, 0.64147013f, -0.02263111f, 0.41309938f, 0.50251049f, -0.01226866f, -0.61737043f, 0.59377700f, -0.05808100f, 0.12327839f, 0.04301448f, -0.03525199f, -0.44404116f, 0.09710684f, -0.30978844f, 0.27098742f, 0.13925795f, 0.26207364f, 0.06624096f, -0.27680460f, 0.11028662f, 0.21951711f},
  {-0.12805781f, 0.10412481f, 0.10560021f, 0.12435929f, 0.06643905f, -0.29377028f, 0.25474897f, 0.10274506f, 0.06104895f, 0.27029443f, -0.29406881f, -0.01415948f, -0.35805997f, -0.02001356f, 0.00514881f, -0.10537063f, 0.14948541f, 0.00066408f, 0.43177849f, -0.16654414f, -0.17729881f, 0.41760173f, -0.00198186f, -0.00000011f, 0.15970340f, -0.03445879f, -0.07314149f, -0.63281935f, 0.02810667f, 0.09363370f, -0.08053470f, 0.29670206f},
  {0.40604874f, 0.23252551f, -0.05821176f, 0.27851784f, -0.09585193f, 0.37233990f, 0.02282961f, 0.10773642f, 0.15049040f, -0.34701651f, 0.10062705f, -0.05175939f, 0.25218242f, 0.41552788f, 0.33115450f, 0.19015215f, -0.37790248f, 0.37935451f, 0.06009061f, 0.13908163f, 0.10257982f, 0.01696601f, -0.43459636f, -0.01850527f, -0.27909750f, 0.30714390f, -0.11215488f, 0.15037619f, 0.05589755f, -0.13468945f, 0.08317555f, -0.09414352f},
  {0.20350491f, 0.50320160f, 0.13356256f, 0.32513091f, 0.31821075f, 0.52087790f, 0.05344329f, 0.29546633f, 0.00096212f, -0.66215795f, -0.22600481f, 0.30414733f, -0.01420895f, 0.51923949f, 0.69129384f, 0.01682566f, -0.22432935f, 0.36960301f, 0.17267561f, 0.13412628f, 0.24593723f, 0.23143443f, -0.55102432f, 0.18244059f, -0.17694387f, 0.45512983f, 0.21866558f, 0.29881868f, 0.19712947f, -0.32344520f, -0.06923757f, -0.00890939f},
  {-0.05842651f, 0.25697577f, 0.18030371f, 0.09737822f, 0.22118588f, 0.12588100f, -0.12932295f, 0.32462007f, -0.07407279f, 0.09128765f, -0.16853288f, -0.09761707f, -0.13896951f, 0.00302269f, -0.08114714f, -0.24231696f, 0.04833556f, 0.33494776f, 0.20611119f, -0.24323478f, -0.12749158f, -0.07597605f, 0.20294876f, 0.12869857f, 0.12099619f, -0.20917867f, 0.13012877f, -0.20681784f, 0.23261039f, 0.12413001f, 0.19632740f, 0.08596662f},
  {0.23384020f, 0.49038702f, 0.17538889f, 0.37872338f, 0.07175112f, 0.33550218f, 0.18091297f, 0.13449730f, 0.01691860f, -0.17831509f, -0.04098714f, 0.28227705f, -0.09096176f, 0.28785527f, 0.18917175f, -0.05329750f, -0.39883170f, 0.18859060f, 0.05701182f, -0.11240374f, -0.29293239f, 0.16955672f, -0.19744444f, -0.01723032f, 0.00159129f, 0.28064469f, -0.12929815f, 0.21367310f, -0.09660635f, -0.25044617f, 0.06705999f, 0.06730301f},
  {0.19677712f, 0.03558797f, 0.30395174f, -0.21261452f, -0.17755836f, -0.26671916f, -0.19250120f, 0.06244372f, 0.09703995f, -0.08859779f, 0.35479787f, 0.18276356f, -0.07234032f, -0.23922485f, -0.15972993f, -0.19717152f, -0.08489932f, -0.00063927f, -0.14658293f, -0.07874729f, 0.26585433f, 0.12941173f, 0.32395124f, -0.16558522f, 0.00611804f, -0.00096297f, -0.24147348f, -0.30572376f, 0.06518962f, 0.15090021f, -0.07982294f, -0.08019014f}
};

const float b2[H2_SIZE] = {
  0.04850210f, -0.02930365f, 0.04723531f, 0.08445026f, 0.04617997f, 0.32451639f, 0.17780945f, 0.37946695f, 0.10704381f, -0.09564966f, -0.12579587f, 0.02112546f, -0.09937229f, 0.27011386f, 0.26904729f, -0.01093719f, -0.07857457f, 0.46348527f, 0.00261943f, -0.05858702f, -0.02883167f, 0.27135846f, 0.16313826f, -0.15010674f, 0.17376396f, 0.27684072f, -0.16656917f, 0.06808907f, 0.09494583f, 0.16963975f, -0.24519086f, 0.22024567f
};

const float W3[H2_SIZE][OUTPUT_SIZE] = {
  {-0.77851802f, 0.45788607f, 0.02818013f},
  {-0.52702695f, 0.48427033f, 0.41625652f},
  {0.30402228f, -0.64225894f, 0.32437274f},
  {-1.28280663f, 0.16839367f, 0.25804043f},
  {-0.87144166f, 0.27589172f, 0.59425795f},
  {-0.82009304f, 0.38271743f, 0.02744661f},
  {-0.30747834f, -0.61009783f, 0.68333054f},
  {-0.47266224f, 0.52903497f, 0.63104790f},
  {-0.75589317f, -0.07795674f, 0.36111724f},
  {0.25505602f, -0.28334966f, -0.29336932f},
  {0.23570068f, -0.03016510f, -0.46996525f},
  {-0.46381599f, 0.12584417f, 0.19751854f},
  {-0.56068176f, 0.49489909f, -0.49593547f},
  {-0.65120399f, 0.42917114f, 0.18057859f},
  {-0.90848929f, 0.47474977f, 0.21893609f},
  {0.21435979f, 0.17490432f, 0.11508756f},
  {0.20139727f, -0.46637875f, -0.32555306f},
  {-1.14281666f, 0.28087839f, 0.33254188f},
  {-0.28060767f, -0.91102314f, 0.50081879f},
  {-0.16413155f, 0.28442657f, -0.55240071f},
  {0.11849851f, 0.41204682f, -0.50837773f},
  {-0.00390239f, -0.75600570f, 0.36555007f},
  {0.28905457f, -0.29483995f, -0.05095338f},
  {0.27186266f, -0.23241614f, -0.35863617f},
  {0.40993175f, -0.06143931f, 0.36749956f},
  {-0.62794244f, 0.68351173f, -0.02988371f},
  {0.25811714f, 0.32933694f, 0.05065697f},
  {-0.96819508f, 0.27711755f, -0.35848999f},
  {-0.38330278f, -0.23291622f, 0.18580800f},
  {0.25342682f, -0.21873006f, 0.04755715f},
  {-0.25509769f, -0.42793652f, -0.28833711f},
  {-0.00753043f, -0.60604417f, 0.15758853f}
};

const float b3[OUTPUT_SIZE] = {
  -0.13580781f, 0.27553278f, -0.34485370f
};

